-0.03208463876387576
-0.03208463876387576
-0.03208463876387576
-0.03208463876387576
-0.03208463876387576
-0.03208463876387576
-0.03208463876387576
-0.03208463876387576
-0.03208463876387576
-0.03208463876387576
-0.03208463876387576
-0.03208463876387576
-0.03208463876387576
-0.03208463876387576
-0.03208463876387576
-0.03208463876387576
-0.03208463876387576
-0.03208463876387576
0.011214297614000283
0.011214297614000283
0.011214297614000283
0.011214297614000283
0.011214297614000283
-0.03208463876387576
-0.03208463876387576
-0.03208463876387576
-0.03208463876387576
-0.03208463876387576
-0.03208463876387576
-0.03208463876387576
-0.03208463876387576
-0.03208463876387576
-0.03208463876387576
-0.03208463876387576
-0.03208463876387576
-0.03208463876387576
-0.03208463876387576
-0.03208463876387576
-0.03208463876387576
-0.03208463876387576
-0.03208463876387576
-0.03208463876387576
-0.03208463876387576
-0.03208463876387576
-0.03208463876387576
-0.03208463876387576
-0.03208463876387576
-0.03208463876387576
-0.03208463876387576
-0.03208463876387576
-0.03208463876387576
-0.03208463876387576
-0.03208463876387576
-0.03208463876387576
0.011214297614000283
0.011214297614000283
0.011214297614000283
0.011214297614000283
0.011214297614000283
0.011214297614000283
0.011214297614000283
0.011214297614000283
0.011214297614000283
0.011214297614000283
0.011214297614000283
0.011214297614000283
0.011214297614000283
-0.03208463876387576
-0.03208463876387576
-0.03208463876387576
-0.03208463876387576
-0.03208463876387576
-0.03208463876387576
-0.03208463876387576
-0.03208463876387576
-0.03208463876387576
-0.03208463876387576
-0.03208463876387576
-0.03208463876387576
-0.03208463876387576
-0.03208463876387576
-0.03208463876387576
-0.03208463876387576
-0.03208463876387576
-0.03208463876387576
-0.03208463876387576
-0.03208463876387576
-0.03208463876387576
-0.03208463876387576
-0.03208463876387576
-0.03208463876387576
-0.03208463876387576
0.011214297614000283
0.011214297614000283
0.011214297614000283
0.011214297614000283
0.011214297614000283
0.011214297614000283
0.011214297614000283
0.011214297614000283
0.011214297614000283
0.011214297614000283
0.011214297614000283
0.011214297614000283
0.011214297614000283
0.011214297614000283
0.011214297614000283
0.011214297614000283
-0.03208463876387576
-0.03208463876387576
-0.03208463876387576
-0.03208463876387576
-0.03208463876387576
-0.03208463876387576
-0.03208463876387576
-0.03208463876387576
-0.03208463876387576
-0.03208463876387576
-0.03208463876387576
-0.03208463876387576
-0.03208463876387576
-0.03208463876387576
-0.03208463876387576
-0.03208463876387576
-0.03208463876387576
-0.03208463876387576
-0.03208463876387576
-0.03208463876387576
-0.03208463876387576
-0.03208463876387576
-0.03208463876387576
-0.03208463876387576
0.011214297614000283
0.011214297614000283
0.011214297614000283
0.011214297614000283
0.011214297614000283
0.011214297614000283
-0.03208463876387576
-0.03208463876387576
-0.03208463876387576
-0.03208463876387576
0.011214297614000283
0.011214297614000283
0.011214297614000283
0.011214297614000283
0.011214297614000283
0.011214297614000283
0.011214297614000283
-0.03208463876387576
-0.03208463876387576
-0.03208463876387576
-0.03208463876387576
-0.03208463876387576
-0.03208463876387576
-0.03208463876387576
-0.03208463876387576
-0.03208463876387576
-0.03208463876387576
-0.03208463876387576
-0.03208463876387576
-0.03208463876387576
-0.03208463876387576
-0.03208463876387576
-0.03208463876387576
-0.03208463876387576
-0.03208463876387576
-0.03208463876387576
-0.03208463876387576
0.011214297614000283
0.011214297614000283
0.011214297614000283
0.011214297614000283
0.011214297614000283
0.011214297614000283
-0.03208463876387576
-0.03208463876387576
-0.03208463876387576
-0.03208463876387576
-0.03208463876387576
-0.03208463876387576
-0.03208463876387576
-0.03208463876387576
-0.03208463876387576
-0.03208463876387576
0.011214297614000283
0.011214297614000283
0.011214297614000283
0.011214297614000283
0.011214297614000283
0.011214297614000283
-0.03208463876387576
-0.03208463876387576
-0.03208463876387576
-0.03208463876387576
-0.03208463876387576
-0.03208463876387576
-0.03208463876387576
-0.03208463876387576
-0.03208463876387576
-0.03208463876387576
-0.03208463876387576
-0.03208463876387576
-0.03208463876387576
-0.03208463876387576
-0.03208463876387576
-0.03208463876387576
-0.03208463876387576
0.011214297614000283
0.011214297614000283
0.011214297614000283
0.011214297614000283
0.011214297614000283
0.011214297614000283
0.011214297614000283
-0.03208463876387576
-0.03208463876387576
-0.03208463876387576
-0.03208463876387576
-0.03208463876387576
-0.03208463876387576
-0.03208463876387576
-0.03208463876387576
-0.03208463876387576
-0.03208463876387576
-0.03208463876387576
0.011214297614000283
0.011214297614000283
0.011214297614000283
0.011214297614000283
0.011214297614000283
0.011214297614000283
-0.03208463876387576
-0.03208463876387576
-0.03208463876387576
-0.03208463876387576
-0.03208463876387576
-0.03208463876387576
-0.03208463876387576
-0.03208463876387576
-0.03208463876387576
-0.03208463876387576
-0.03208463876387576
-0.03208463876387576
-0.03208463876387576
-0.03208463876387576
-0.03208463876387576
-0.03208463876387576
0.011214297614000283
0.011214297614000283
0.011214297614000283
0.011214297614000283
0.011214297614000283
0.011214297614000283
-0.03208463876387576
-0.03208463876387576
-0.03208463876387576
-0.03208463876387576
-0.03208463876387576
-0.03208463876387576
-0.03208463876387576
-0.03208463876387576
-0.03208463876387576
-0.03208463876387576
-0.03208463876387576
-0.03208463876387576
0.011214297614000283
0.011214297614000283
0.011214297614000283
0.011214297614000283
0.011214297614000283
0.011214297614000283
-0.03208463876387576
-0.03208463876387576
-0.03208463876387576
-0.03208463876387576
-0.03208463876387576
-0.03208463876387576
-0.03208463876387576
-0.03208463876387576
-0.03208463876387576
-0.03208463876387576
-0.03208463876387576
-0.03208463876387576
-0.03208463876387576
-0.03208463876387576
-0.03208463876387576
0.011214297614000283
0.011214297614000283
0.011214297614000283
0.011214297614000283
0.011214297614000283
0.011214297614000283
-0.03208463876387576
-0.03208463876387576
-0.03208463876387576
-0.03208463876387576
-0.03208463876387576
-0.03208463876387576
-0.03208463876387576
-0.03208463876387576
-0.03208463876387576
-0.03208463876387576
-0.03208463876387576
-0.03208463876387576
-0.03208463876387576
-0.03208463876387576
-0.03208463876387576
0.011214297614000283
0.011214297614000283
0.011214297614000283
0.011214297614000283
0.011214297614000283
-0.03208463876387576
-0.03208463876387576
-0.03208463876387576
-0.03208463876387576
-0.03208463876387576
-0.03208463876387576
-0.03208463876387576
-0.03208463876387576
-0.03208463876387576
-0.03208463876387576
-0.03208463876387576
-0.03208463876387576
-0.03208463876387576
0.011214297614000283
0.011214297614000283
0.011214297614000283
0.011214297614000283
0.011214297614000283
0.011214297614000283
-0.03208463876387576
-0.03208463876387576
-0.03208463876387576
-0.03208463876387576
-0.03208463876387576
-0.03208463876387576
-0.03208463876387576
-0.03208463876387576
-0.03208463876387576
-0.03208463876387576
-0.03208463876387576
-0.03208463876387576
-0.03208463876387576
-0.03208463876387576
-0.03208463876387576
-0.03208463876387576
0.011214297614000283
0.011214297614000283
0.011214297614000283
0.011214297614000283
0.011214297614000283
0.011214297614000283
-0.03208463876387576
-0.03208463876387576
-0.03208463876387576
-0.03208463876387576
-0.03208463876387576
-0.03208463876387576
-0.03208463876387576
-0.03208463876387576
-0.03208463876387576
-0.03208463876387576
-0.03208463876387576
-0.03208463876387576
0.011214297614000283
0.011214297614000283
0.011214297614000283
0.011214297614000283
0.011214297614000283
0.011214297614000283
-0.03208463876387576
-0.03208463876387576
-0.03208463876387576
-0.03208463876387576
-0.03208463876387576
-0.03208463876387576
-0.03208463876387576
-0.03208463876387576
-0.03208463876387576
-0.03208463876387576
-0.03208463876387576
-0.03208463876387576
-0.03208463876387576
-0.03208463876387576
-0.03208463876387576
-0.03208463876387576
0.011214297614000283
0.011214297614000283
0.011214297614000283
0.011214297614000283
0.011214297614000283
0.011214297614000283
0.011214297614000283
-0.03208463876387576
-0.03208463876387576
-0.03208463876387576
-0.03208463876387576
-0.03208463876387576
-0.03208463876387576
-0.03208463876387576
-0.03208463876387576
-0.03208463876387576
-0.03208463876387576
0.011214297614000283
0.011214297614000283
0.011214297614000283
0.011214297614000283
0.011214297614000283
0.011214297614000283
0.011214297614000283
-0.03208463876387576
-0.03208463876387576
-0.03208463876387576
-0.03208463876387576
-0.03208463876387576
-0.03208463876387576
-0.03208463876387576
-0.03208463876387576
-0.03208463876387576
-0.03208463876387576
-0.03208463876387576
-0.03208463876387576
-0.03208463876387576
-0.03208463876387576
-0.03208463876387576
-0.03208463876387576
0.011214297614000283
0.011214297614000283
0.011214297614000283
0.011214297614000283
0.011214297614000283
0.011214297614000283
0.011214297614000283
-0.03208463876387576
-0.03208463876387576
-0.03208463876387576
-0.03208463876387576
-0.03208463876387576
-0.03208463876387576
-0.03208463876387576
-0.03208463876387576
-0.03208463876387576
-0.03208463876387576
0.011214297614000283
0.011214297614000283
0.011214297614000283
0.011214297614000283
0.011214297614000283
0.011214297614000283
0.011214297614000283
-0.03208463876387576
-0.03208463876387576
-0.03208463876387576
-0.03208463876387576
-0.03208463876387576
-0.03208463876387576
-0.03208463876387576
-0.03208463876387576
-0.03208463876387576
-0.03208463876387576
-0.03208463876387576
-0.03208463876387576
-0.03208463876387576
-0.03208463876387576
-0.03208463876387576
-0.03208463876387576
-0.03208463876387576
0.011214297614000283
0.011214297614000283
0.011214297614000283
0.011214297614000283
0.011214297614000283
0.011214297614000283
-0.03208463876387576
-0.03208463876387576
-0.03208463876387576
-0.03208463876387576
-0.03208463876387576
-0.03208463876387576
-0.03208463876387576
-0.03208463876387576
-0.03208463876387576
0.011214297614000283
0.011214297614000283
0.011214297614000283
0.011214297614000283
0.011214297614000283
0.011214297614000283
0.011214297614000283
-0.03208463876387576
-0.03208463876387576
-0.03208463876387576
-0.03208463876387576
-0.03208463876387576
-0.03208463876387576
-0.03208463876387576
-0.03208463876387576
-0.03208463876387576
-0.03208463876387576
-0.03208463876387576
-0.03208463876387576
-0.03208463876387576
-0.03208463876387576
-0.03208463876387576
-0.03208463876387576
-0.03208463876387576
-0.03208463876387576
0.011214297614000283
0.011214297614000283
0.011214297614000283
0.011214297614000283
0.011214297614000283
0.011214297614000283
0.011214297614000283
-0.03208463876387576
-0.03208463876387576
-0.03208463876387576
-0.03208463876387576
-0.03208463876387576
-0.03208463876387576
-0.03208463876387576
0.011214297614000283
0.011214297614000283
0.011214297614000283
0.011214297614000283
0.011214297614000283
0.011214297614000283
0.011214297614000283
0.011214297614000283
-0.03208463876387576
-0.03208463876387576
-0.03208463876387576
-0.03208463876387576
-0.03208463876387576
-0.03208463876387576
-0.03208463876387576
-0.03208463876387576
-0.03208463876387576
-0.03208463876387576
-0.03208463876387576
-0.03208463876387576
-0.03208463876387576
-0.03208463876387576
-0.03208463876387576
-0.03208463876387576
-0.03208463876387576
-0.03208463876387576
0.011214297614000283
0.011214297614000283
0.011214297614000283
0.011214297614000283
0.011214297614000283
0.011214297614000283
0.011214297614000283
0.011214297614000283
-0.03208463876387576
-0.03208463876387576
-0.03208463876387576
-0.03208463876387576
-0.03208463876387576
-0.03208463876387576
0.011214297614000283
0.011214297614000283
0.011214297614000283
0.011214297614000283
0.011214297614000283
0.011214297614000283
0.011214297614000283
0.011214297614000283
-0.03208463876387576
-0.03208463876387576
-0.03208463876387576
-0.03208463876387576
-0.03208463876387576
-0.03208463876387576
-0.03208463876387576
-0.03208463876387576
-0.03208463876387576
-0.03208463876387576
-0.03208463876387576
-0.03208463876387576
-0.03208463876387576
-0.03208463876387576
-0.03208463876387576
-0.03208463876387576
-0.03208463876387576
-0.03208463876387576
-0.03208463876387576
0.011214297614000283
0.011214297614000283
0.011214297614000283
0.011214297614000283
0.011214297614000283
0.011214297614000283
0.011214297614000283
-0.03208463876387576
-0.03208463876387576
-0.03208463876387576
-0.03208463876387576
-0.03208463876387576
0.011214297614000283
0.011214297614000283
0.011214297614000283
0.011214297614000283
0.011214297614000283
0.011214297614000283
0.011214297614000283
0.011214297614000283
-0.03208463876387576
-0.03208463876387576
-0.03208463876387576
-0.03208463876387576
-0.03208463876387576
-0.03208463876387576
-0.03208463876387576
-0.03208463876387576
-0.03208463876387576
-0.03208463876387576
-0.03208463876387576
-0.03208463876387576
-0.03208463876387576
-0.03208463876387576
-0.03208463876387576
-0.03208463876387576
-0.03208463876387576
-0.03208463876387576
-0.03208463876387576
-0.03208463876387576
0.011214297614000283
0.011214297614000283
0.011214297614000283
0.011214297614000283
0.011214297614000283
0.011214297614000283
0.011214297614000283
0.011214297614000283
-0.03208463876387576
-0.03208463876387576
-0.03208463876387576
-0.03208463876387576
0.011214297614000283
0.011214297614000283
0.011214297614000283
0.011214297614000283
0.011214297614000283
0.011214297614000283
0.011214297614000283
0.011214297614000283
-0.03208463876387576
-0.03208463876387576
-0.03208463876387576
-0.03208463876387576
-0.03208463876387576
-0.03208463876387576
-0.03208463876387576
-0.03208463876387576
-0.03208463876387576
-0.03208463876387576
-0.03208463876387576
-0.03208463876387576
-0.03208463876387576
-0.03208463876387576
-0.03208463876387576
-0.03208463876387576
-0.03208463876387576
-0.03208463876387576
-0.03208463876387576
-0.03208463876387576
0.011214297614000283
0.011214297614000283
0.011214297614000283
0.011214297614000283
0.011214297614000283
0.011214297614000283
0.011214297614000283
0.011214297614000283
-0.03208463876387576
-0.03208463876387576
-0.03208463876387576
-0.03208463876387576
0.011214297614000283
0.011214297614000283
0.011214297614000283
0.011214297614000283
0.011214297614000283
0.011214297614000283
0.011214297614000283
0.011214297614000283
-0.03208463876387576
-0.03208463876387576
-0.03208463876387576
-0.03208463876387576
-0.03208463876387576
-0.03208463876387576
-0.03208463876387576
-0.03208463876387576
-0.03208463876387576
-0.03208463876387576
-0.03208463876387576
-0.03208463876387576
-0.03208463876387576
-0.03208463876387576
-0.03208463876387576
-0.03208463876387576
-0.03208463876387576
-0.03208463876387576
-0.03208463876387576
-0.03208463876387576
0.011214297614000283
0.011214297614000283
0.011214297614000283
0.011214297614000283
0.011214297614000283
0.011214297614000283
0.011214297614000283
0.011214297614000283
-0.03208463876387576
-0.03208463876387576
-0.03208463876387576
-0.03208463876387576
0.011214297614000283
0.011214297614000283
0.011214297614000283
0.011214297614000283
0.011214297614000283
0.011214297614000283
0.011214297614000283
0.011214297614000283
-0.03208463876387576
-0.03208463876387576
-0.03208463876387576
-0.03208463876387576
-0.03208463876387576
-0.03208463876387576
-0.03208463876387576
-0.03208463876387576
-0.03208463876387576
-0.03208463876387576
-0.03208463876387576
-0.03208463876387576
-0.03208463876387576
-0.03208463876387576
-0.03208463876387576
-0.03208463876387576
-0.03208463876387576
-0.03208463876387576
-0.03208463876387576
-0.03208463876387576
-0.03208463876387576
0.011214297614000283
0.011214297614000283
0.011214297614000283
0.011214297614000283
0.011214297614000283
0.011214297614000283
0.011214297614000283
-0.03208463876387576
-0.03208463876387576
-0.03208463876387576
-0.03208463876387576
0.011214297614000283
0.011214297614000283
0.011214297614000283
0.011214297614000283
0.011214297614000283
0.011214297614000283
0.011214297614000283
0.011214297614000283
-0.03208463876387576
-0.03208463876387576
-0.03208463876387576
-0.03208463876387576
-0.03208463876387576
-0.03208463876387576
-0.03208463876387576
-0.03208463876387576
-0.03208463876387576
-0.03208463876387576
-0.03208463876387576
-0.03208463876387576
-0.03208463876387576
-0.03208463876387576
-0.03208463876387576
-0.03208463876387576
-0.03208463876387576
-0.03208463876387576
-0.03208463876387576
-0.03208463876387576
-0.03208463876387576
0.011214297614000283
0.011214297614000283
0.011214297614000283
0.011214297614000283
0.011214297614000283
0.011214297614000283
0.011214297614000283
-0.03208463876387576
-0.03208463876387576
-0.03208463876387576
-0.03208463876387576
0.011214297614000283
0.011214297614000283
0.011214297614000283
0.011214297614000283
0.011214297614000283
0.011214297614000283
0.011214297614000283
0.011214297614000283
-0.03208463876387576
-0.03208463876387576
-0.03208463876387576
-0.03208463876387576
-0.03208463876387576
-0.03208463876387576
-0.03208463876387576
-0.03208463876387576
-0.03208463876387576
-0.03208463876387576
-0.03208463876387576
-0.03208463876387576
-0.03208463876387576
-0.03208463876387576
-0.03208463876387576
-0.03208463876387576
-0.03208463876387576
-0.03208463876387576
-0.03208463876387576
-0.03208463876387576
-0.03208463876387576
0.011214297614000283
0.011214297614000283
0.011214297614000283
0.011214297614000283
0.011214297614000283
0.011214297614000283
0.011214297614000283
0.011214297614000283
-0.03208463876387576
-0.03208463876387576
0.011214297614000283
0.011214297614000283
0.011214297614000283
0.011214297614000283
0.011214297614000283
0.011214297614000283
0.011214297614000283
0.011214297614000283
-0.03208463876387576
-0.03208463876387576
-0.03208463876387576
-0.03208463876387576
-0.03208463876387576
-0.03208463876387576
-0.03208463876387576
-0.03208463876387576
-0.03208463876387576
-0.03208463876387576
-0.03208463876387576
-0.03208463876387576
-0.03208463876387576
-0.03208463876387576
-0.03208463876387576
-0.03208463876387576
-0.03208463876387576
-0.03208463876387576
-0.03208463876387576
-0.03208463876387576
-0.03208463876387576
-0.03208463876387576
0.011214297614000283
0.011214297614000283
0.011214297614000283
0.011214297614000283
0.011214297614000283
0.011214297614000283
0.011214297614000283
0.011214297614000283
-0.03208463876387576
-0.03208463876387576
0.011214297614000283
0.011214297614000283
0.011214297614000283
0.011214297614000283
0.011214297614000283
0.011214297614000283
0.011214297614000283
0.011214297614000283
-0.03208463876387576
-0.03208463876387576
-0.03208463876387576
-0.03208463876387576
-0.03208463876387576
-0.03208463876387576
-0.03208463876387576
-0.03208463876387576
-0.03208463876387576
-0.03208463876387576
-0.03208463876387576
-0.03208463876387576
-0.03208463876387576
-0.03208463876387576
-0.03208463876387576
-0.03208463876387576
-0.03208463876387576
-0.03208463876387576
-0.03208463876387576
-0.03208463876387576
-0.03208463876387576
-0.03208463876387576
0.011214297614000283
0.011214297614000283
0.011214297614000283
0.011214297614000283
0.011214297614000283
0.011214297614000283
0.011214297614000283
0.011214297614000283
-0.03208463876387576
-0.03208463876387576
0.011214297614000283
0.011214297614000283
0.011214297614000283
0.011214297614000283
0.011214297614000283
0.011214297614000283
0.011214297614000283
0.011214297614000283
-0.03208463876387576
-0.03208463876387576
-0.03208463876387576
-0.03208463876387576
-0.03208463876387576
-0.03208463876387576
-0.03208463876387576
-0.03208463876387576
-0.03208463876387576
-0.03208463876387576
-0.03208463876387576
-0.03208463876387576
-0.03208463876387576
-0.03208463876387576
-0.03208463876387576
-0.03208463876387576
-0.03208463876387576
-0.03208463876387576
-0.03208463876387576
-0.03208463876387576
-0.03208463876387576
-0.03208463876387576
0.011214297614000283
0.011214297614000283
0.011214297614000283
0.011214297614000283
0.011214297614000283
0.011214297614000283
0.011214297614000283
0.011214297614000283
-0.03208463876387576
-0.03208463876387576
0.011214297614000283
0.011214297614000283
0.011214297614000283
0.011214297614000283
0.011214297614000283
0.011214297614000283
0.011214297614000283
0.011214297614000283
-0.03208463876387576
-0.03208463876387576
-0.03208463876387576
-0.03208463876387576
-0.03208463876387576
-0.03208463876387576
-0.03208463876387576
-0.03208463876387576
-0.03208463876387576
-0.03208463876387576
-0.03208463876387576
-0.03208463876387576
-0.03208463876387576
-0.03208463876387576
-0.03208463876387576
-0.03208463876387576
-0.03208463876387576
-0.03208463876387576
-0.03208463876387576
-0.03208463876387576
-0.03208463876387576
-0.03208463876387576
0.011214297614000283
0.011214297614000283
0.011214297614000283
0.011214297614000283
0.011214297614000283
0.011214297614000283
0.011214297614000283
0.011214297614000283
-0.03208463876387576
-0.03208463876387576
0.011214297614000283
0.011214297614000283
0.011214297614000283
0.011214297614000283
0.011214297614000283
0.011214297614000283
0.011214297614000283
0.011214297614000283
-0.03208463876387576
-0.03208463876387576
-0.03208463876387576
-0.03208463876387576
-0.03208463876387576
-0.03208463876387576
-0.03208463876387576
-0.03208463876387576
-0.03208463876387576
-0.03208463876387576
-0.03208463876387576
-0.03208463876387576
-0.03208463876387576
-0.03208463876387576
-0.03208463876387576
-0.03208463876387576
-0.03208463876387576
-0.03208463876387576
-0.03208463876387576
-0.03208463876387576
-0.03208463876387576
-0.03208463876387576
0.011214297614000283
0.011214297614000283
0.011214297614000283
0.011214297614000283
0.011214297614000283
0.011214297614000283
0.011214297614000283
0.011214297614000283
-0.03208463876387576
-0.03208463876387576
0.011214297614000283
0.011214297614000283
0.011214297614000283
0.011214297614000283
0.011214297614000283
0.011214297614000283
0.011214297614000283
0.011214297614000283
-0.03208463876387576
-0.03208463876387576
-0.03208463876387576
-0.03208463876387576
-0.03208463876387576
-0.03208463876387576
-0.03208463876387576
-0.03208463876387576
-0.03208463876387576
-0.03208463876387576
-0.03208463876387576
-0.03208463876387576
-0.03208463876387576
-0.03208463876387576
-0.03208463876387576
-0.03208463876387576
-0.03208463876387576
-0.03208463876387576
-0.03208463876387576
-0.03208463876387576
-0.03208463876387576
-0.03208463876387576
0.011214297614000283
0.011214297614000283
0.011214297614000283
0.011214297614000283
0.011214297614000283
0.011214297614000283
0.011214297614000283
0.011214297614000283
0.011214297614000283
-0.03208463876387576
0.011214297614000283
0.011214297614000283
0.011214297614000283
0.011214297614000283
0.011214297614000283
0.011214297614000283
0.011214297614000283
0.011214297614000283
-0.03208463876387576
-0.03208463876387576
-0.03208463876387576
-0.03208463876387576
-0.03208463876387576
-0.03208463876387576
-0.03208463876387576
-0.03208463876387576
-0.03208463876387576
-0.03208463876387576
-0.03208463876387576
-0.03208463876387576
-0.03208463876387576
-0.03208463876387576
-0.03208463876387576
-0.03208463876387576
-0.03208463876387576
-0.03208463876387576
-0.03208463876387576
-0.03208463876387576
-0.03208463876387576
-0.03208463876387576
0.011214297614000283
0.011214297614000283
0.011214297614000283
0.011214297614000283
0.011214297614000283
0.011214297614000283
0.011214297614000283
0.011214297614000283
0.011214297614000283
-0.03208463876387576
0.011214297614000283
0.011214297614000283
0.011214297614000283
0.011214297614000283
0.011214297614000283
0.011214297614000283
0.011214297614000283
0.011214297614000283
-0.03208463876387576
-0.03208463876387576
-0.03208463876387576
-0.03208463876387576
-0.03208463876387576
-0.03208463876387576
-0.03208463876387576
-0.03208463876387576
-0.03208463876387576
-0.03208463876387576
-0.03208463876387576
-0.03208463876387576
-0.03208463876387576
-0.03208463876387576
-0.03208463876387576
-0.03208463876387576
-0.03208463876387576
-0.03208463876387576
-0.03208463876387576
-0.03208463876387576
-0.03208463876387576
-0.03208463876387576
0.011214297614000283
0.011214297614000283
0.011214297614000283
0.011214297614000283
0.011214297614000283
0.011214297614000283
0.011214297614000283
0.011214297614000283
0.011214297614000283
0.011214297614000283
0.011214297614000283
0.011214297614000283
0.011214297614000283
0.011214297614000283
0.011214297614000283
0.011214297614000283
0.011214297614000283
0.011214297614000283
-0.03208463876387576
-0.03208463876387576
-0.03208463876387576
-0.03208463876387576
-0.03208463876387576
-0.03208463876387576
-0.03208463876387576
-0.03208463876387576
-0.03208463876387576
-0.03208463876387576
-0.03208463876387576
-0.03208463876387576
-0.03208463876387576
-0.03208463876387576
-0.03208463876387576
-0.03208463876387576
-0.03208463876387576
-0.03208463876387576
-0.03208463876387576
-0.03208463876387576
-0.03208463876387576
-0.03208463876387576
0.011214297614000283
0.011214297614000283
0.011214297614000283
0.011214297614000283
0.011214297614000283
0.011214297614000283
0.011214297614000283
0.011214297614000283
0.011214297614000283
0.011214297614000283
0.011214297614000283
0.011214297614000283
0.011214297614000283
0.011214297614000283
0.011214297614000283
0.011214297614000283
0.011214297614000283
0.011214297614000283
-0.03208463876387576
-0.03208463876387576
-0.03208463876387576
-0.03208463876387576
-0.03208463876387576
-0.03208463876387576
-0.03208463876387576
-0.03208463876387576
-0.03208463876387576
-0.03208463876387576
-0.03208463876387576
-0.03208463876387576
-0.03208463876387576
-0.03208463876387576
-0.03208463876387576
-0.03208463876387576
-0.03208463876387576
-0.03208463876387576
-0.03208463876387576
-0.03208463876387576
-0.03208463876387576
-0.03208463876387576
0.011214297614000283
0.011214297614000283
0.011214297614000283
0.011214297614000283
0.011214297614000283
0.011214297614000283
0.011214297614000283
0.011214297614000283
0.011214297614000283
0.011214297614000283
0.011214297614000283
0.011214297614000283
0.011214297614000283
0.011214297614000283
0.011214297614000283
0.011214297614000283
0.011214297614000283
0.011214297614000283
-0.03208463876387576
-0.03208463876387576
-0.03208463876387576
-0.03208463876387576
-0.03208463876387576
-0.03208463876387576
-0.03208463876387576
-0.03208463876387576
-0.03208463876387576
-0.03208463876387576
-0.03208463876387576
-0.03208463876387576
-0.03208463876387576
-0.03208463876387576
-0.03208463876387576
-0.03208463876387576
-0.03208463876387576
-0.03208463876387576
-0.03208463876387576
-0.03208463876387576
-0.03208463876387576
-0.03208463876387576
0.011214297614000283
0.011214297614000283
0.011214297614000283
0.011214297614000283
0.011214297614000283
0.011214297614000283
0.011214297614000283
0.011214297614000283
0.011214297614000283
-0.03208463876387576
0.011214297614000283
0.011214297614000283
0.011214297614000283
0.011214297614000283
0.011214297614000283
0.011214297614000283
0.011214297614000283
0.011214297614000283
-0.03208463876387576
-0.03208463876387576
-0.03208463876387576
-0.03208463876387576
-0.03208463876387576
-0.03208463876387576
-0.03208463876387576
-0.03208463876387576
-0.03208463876387576
-0.03208463876387576
-0.03208463876387576
-0.03208463876387576
-0.03208463876387576
-0.03208463876387576
-0.03208463876387576
-0.03208463876387576
-0.03208463876387576
-0.03208463876387576
-0.03208463876387576
-0.03208463876387576
-0.03208463876387576
-0.03208463876387576
0.011214297614000283
0.011214297614000283
0.011214297614000283
0.011214297614000283
0.011214297614000283
0.011214297614000283
0.011214297614000283
0.011214297614000283
0.011214297614000283
-0.03208463876387576
0.011214297614000283
0.011214297614000283
0.011214297614000283
0.011214297614000283
0.011214297614000283
0.011214297614000283
0.011214297614000283
0.011214297614000283
-0.03208463876387576
-0.03208463876387576
-0.03208463876387576
-0.03208463876387576
-0.03208463876387576
-0.03208463876387576
-0.03208463876387576
-0.03208463876387576
-0.03208463876387576
-0.03208463876387576
-0.03208463876387576
-0.03208463876387576
-0.03208463876387576
-0.03208463876387576
-0.03208463876387576
-0.03208463876387576
-0.03208463876387576
-0.03208463876387576
-0.03208463876387576
-0.03208463876387576
-0.03208463876387576
-0.03208463876387576
0.011214297614000283
0.011214297614000283
0.011214297614000283
0.011214297614000283
0.011214297614000283
0.011214297614000283
0.011214297614000283
0.011214297614000283
-0.03208463876387576
-0.03208463876387576
0.011214297614000283
0.011214297614000283
0.011214297614000283
0.011214297614000283
0.011214297614000283
0.011214297614000283
0.011214297614000283
0.011214297614000283
-0.03208463876387576
-0.03208463876387576
-0.03208463876387576
-0.03208463876387576
-0.03208463876387576
-0.03208463876387576
-0.03208463876387576
-0.03208463876387576
-0.03208463876387576
-0.03208463876387576
-0.03208463876387576
-0.03208463876387576
-0.03208463876387576
-0.03208463876387576
-0.03208463876387576
-0.03208463876387576
-0.03208463876387576
-0.03208463876387576
-0.03208463876387576
-0.03208463876387576
-0.03208463876387576
-0.03208463876387576
0.011214297614000283
0.011214297614000283
0.011214297614000283
0.011214297614000283
0.011214297614000283
0.011214297614000283
0.011214297614000283
0.011214297614000283
-0.03208463876387576
-0.03208463876387576
0.011214297614000283
0.011214297614000283
0.011214297614000283
0.011214297614000283
0.011214297614000283
0.011214297614000283
0.011214297614000283
0.011214297614000283
-0.03208463876387576
-0.03208463876387576
-0.03208463876387576
-0.03208463876387576
-0.03208463876387576
-0.03208463876387576
-0.03208463876387576
-0.03208463876387576
-0.03208463876387576
-0.03208463876387576
-0.03208463876387576
-0.03208463876387576
-0.03208463876387576
-0.03208463876387576
-0.03208463876387576
-0.03208463876387576
-0.03208463876387576
-0.03208463876387576
-0.03208463876387576
-0.03208463876387576
-0.03208463876387576
-0.03208463876387576
0.011214297614000283
0.011214297614000283
0.011214297614000283
0.011214297614000283
0.011214297614000283
0.011214297614000283
0.011214297614000283
0.011214297614000283
-0.03208463876387576
-0.03208463876387576
0.011214297614000283
0.011214297614000283
0.011214297614000283
0.011214297614000283
0.011214297614000283
0.011214297614000283
0.011214297614000283
0.011214297614000283
-0.03208463876387576
-0.03208463876387576
-0.03208463876387576
-0.03208463876387576
-0.03208463876387576
-0.03208463876387576
-0.03208463876387576
-0.03208463876387576
-0.03208463876387576
-0.03208463876387576
-0.03208463876387576
-0.03208463876387576
-0.03208463876387576
-0.03208463876387576
-0.03208463876387576
-0.03208463876387576
-0.03208463876387576
-0.03208463876387576
-0.03208463876387576
-0.03208463876387576
-0.03208463876387576
-0.03208463876387576
0.011214297614000283
0.011214297614000283
0.011214297614000283
0.011214297614000283
0.011214297614000283
0.011214297614000283
0.011214297614000283
0.011214297614000283
-0.03208463876387576
-0.03208463876387576
0.011214297614000283
0.011214297614000283
0.011214297614000283
0.011214297614000283
0.011214297614000283
0.011214297614000283
0.011214297614000283
0.011214297614000283
-0.03208463876387576
-0.03208463876387576
-0.03208463876387576
-0.03208463876387576
-0.03208463876387576
-0.03208463876387576
-0.03208463876387576
-0.03208463876387576
-0.03208463876387576
-0.03208463876387576
-0.03208463876387576
-0.03208463876387576
-0.03208463876387576
-0.03208463876387576
-0.03208463876387576
-0.03208463876387576
-0.03208463876387576
-0.03208463876387576
-0.03208463876387576
-0.03208463876387576
-0.03208463876387576
-0.03208463876387576
0.011214297614000283
0.011214297614000283
0.011214297614000283
0.011214297614000283
0.011214297614000283
0.011214297614000283
0.011214297614000283
0.011214297614000283
-0.03208463876387576
-0.03208463876387576
0.011214297614000283
0.011214297614000283
0.011214297614000283
0.011214297614000283
0.011214297614000283
0.011214297614000283
0.011214297614000283
0.011214297614000283
-0.03208463876387576
-0.03208463876387576
-0.03208463876387576
-0.03208463876387576
-0.03208463876387576
-0.03208463876387576
-0.03208463876387576
-0.03208463876387576
-0.03208463876387576
-0.03208463876387576
-0.03208463876387576
-0.03208463876387576
-0.03208463876387576
-0.03208463876387576
-0.03208463876387576
-0.03208463876387576
-0.03208463876387576
-0.03208463876387576
-0.03208463876387576
-0.03208463876387576
-0.03208463876387576
-0.03208463876387576
0.011214297614000283
0.011214297614000283
0.011214297614000283
0.011214297614000283
0.011214297614000283
0.011214297614000283
0.011214297614000283
0.011214297614000283
-0.03208463876387576
-0.03208463876387576
0.011214297614000283
0.011214297614000283
0.011214297614000283
0.011214297614000283
0.011214297614000283
0.011214297614000283
0.011214297614000283
0.011214297614000283
-0.03208463876387576
-0.03208463876387576
-0.03208463876387576
-0.03208463876387576
-0.03208463876387576
-0.03208463876387576
-0.03208463876387576
-0.03208463876387576
-0.03208463876387576
-0.03208463876387576
-0.03208463876387576
-0.03208463876387576
-0.03208463876387576
-0.03208463876387576
-0.03208463876387576
-0.03208463876387576
-0.03208463876387576
-0.03208463876387576
-0.03208463876387576
-0.03208463876387576
-0.03208463876387576
-0.03208463876387576
0.011214297614000283
0.011214297614000283
0.011214297614000283
0.011214297614000283
0.011214297614000283
0.011214297614000283
0.011214297614000283
0.011214297614000283
-0.03208463876387576
-0.03208463876387576
-0.03208463876387576
0.011214297614000283
0.011214297614000283
0.011214297614000283
0.011214297614000283
0.011214297614000283
0.011214297614000283
0.011214297614000283
0.011214297614000283
-0.03208463876387576
-0.03208463876387576
-0.03208463876387576
-0.03208463876387576
-0.03208463876387576
-0.03208463876387576
-0.03208463876387576
-0.03208463876387576
-0.03208463876387576
-0.03208463876387576
-0.03208463876387576
-0.03208463876387576
-0.03208463876387576
-0.03208463876387576
-0.03208463876387576
-0.03208463876387576
-0.03208463876387576
-0.03208463876387576
-0.03208463876387576
-0.03208463876387576
0.011214297614000283
0.011214297614000283
0.011214297614000283
0.011214297614000283
0.011214297614000283
0.011214297614000283
0.011214297614000283
0.011214297614000283
-0.03208463876387576
-0.03208463876387576
-0.03208463876387576
-0.03208463876387576
0.011214297614000283
0.011214297614000283
0.011214297614000283
0.011214297614000283
0.011214297614000283
0.011214297614000283
0.011214297614000283
0.011214297614000283
-0.03208463876387576
-0.03208463876387576
-0.03208463876387576
-0.03208463876387576
-0.03208463876387576
-0.03208463876387576
-0.03208463876387576
-0.03208463876387576
-0.03208463876387576
-0.03208463876387576
-0.03208463876387576
-0.03208463876387576
-0.03208463876387576
-0.03208463876387576
-0.03208463876387576
-0.03208463876387576
-0.03208463876387576
-0.03208463876387576
-0.03208463876387576
-0.03208463876387576
0.011214297614000283
0.011214297614000283
0.011214297614000283
0.011214297614000283
0.011214297614000283
0.011214297614000283
0.011214297614000283
0.011214297614000283
-0.03208463876387576
-0.03208463876387576
-0.03208463876387576
-0.03208463876387576
0.011214297614000283
0.011214297614000283
0.011214297614000283
0.011214297614000283
0.011214297614000283
0.011214297614000283
0.011214297614000283
0.011214297614000283
-0.03208463876387576
-0.03208463876387576
-0.03208463876387576
-0.03208463876387576
-0.03208463876387576
-0.03208463876387576
-0.03208463876387576
-0.03208463876387576
-0.03208463876387576
-0.03208463876387576
-0.03208463876387576
-0.03208463876387576
-0.03208463876387576
-0.03208463876387576
-0.03208463876387576
-0.03208463876387576
-0.03208463876387576
-0.03208463876387576
-0.03208463876387576
-0.03208463876387576
0.011214297614000283
0.011214297614000283
0.011214297614000283
0.011214297614000283
0.011214297614000283
0.011214297614000283
0.011214297614000283
0.011214297614000283
-0.03208463876387576
-0.03208463876387576
-0.03208463876387576
-0.03208463876387576
0.011214297614000283
0.011214297614000283
0.011214297614000283
0.011214297614000283
0.011214297614000283
0.011214297614000283
0.011214297614000283
0.011214297614000283
-0.03208463876387576
-0.03208463876387576
-0.03208463876387576
-0.03208463876387576
-0.03208463876387576
-0.03208463876387576
-0.03208463876387576
-0.03208463876387576
-0.03208463876387576
-0.03208463876387576
-0.03208463876387576
-0.03208463876387576
-0.03208463876387576
-0.03208463876387576
-0.03208463876387576
-0.03208463876387576
-0.03208463876387576
-0.03208463876387576
-0.03208463876387576
-0.03208463876387576
0.011214297614000283
0.011214297614000283
0.011214297614000283
0.011214297614000283
0.011214297614000283
0.011214297614000283
0.011214297614000283
0.011214297614000283
-0.03208463876387576
-0.03208463876387576
-0.03208463876387576
-0.03208463876387576
0.011214297614000283
0.011214297614000283
0.011214297614000283
0.011214297614000283
0.011214297614000283
0.011214297614000283
0.011214297614000283
0.011214297614000283
-0.03208463876387576
-0.03208463876387576
-0.03208463876387576
-0.03208463876387576
-0.03208463876387576
-0.03208463876387576
-0.03208463876387576
-0.03208463876387576
-0.03208463876387576
-0.03208463876387576
-0.03208463876387576
-0.03208463876387576
-0.03208463876387576
-0.03208463876387576
-0.03208463876387576
-0.03208463876387576
-0.03208463876387576
-0.03208463876387576
-0.03208463876387576
-0.03208463876387576
0.011214297614000283
0.011214297614000283
0.011214297614000283
0.011214297614000283
0.011214297614000283
0.011214297614000283
0.011214297614000283
0.011214297614000283
-0.03208463876387576
-0.03208463876387576
-0.03208463876387576
-0.03208463876387576
-0.03208463876387576
0.011214297614000283
0.011214297614000283
0.011214297614000283
0.011214297614000283
0.011214297614000283
0.011214297614000283
0.011214297614000283
0.011214297614000283
-0.03208463876387576
-0.03208463876387576
-0.03208463876387576
-0.03208463876387576
-0.03208463876387576
-0.03208463876387576
-0.03208463876387576
-0.03208463876387576
-0.03208463876387576
-0.03208463876387576
-0.03208463876387576
-0.03208463876387576
-0.03208463876387576
-0.03208463876387576
-0.03208463876387576
-0.03208463876387576
-0.03208463876387576
-0.03208463876387576
0.011214297614000283
0.011214297614000283
0.011214297614000283
0.011214297614000283
0.011214297614000283
0.011214297614000283
0.011214297614000283
0.011214297614000283
-0.03208463876387576
-0.03208463876387576
-0.03208463876387576
-0.03208463876387576
-0.03208463876387576
-0.03208463876387576
0.011214297614000283
0.011214297614000283
0.011214297614000283
0.011214297614000283
0.011214297614000283
0.011214297614000283
0.011214297614000283
0.011214297614000283
-0.03208463876387576
-0.03208463876387576
-0.03208463876387576
-0.03208463876387576
-0.03208463876387576
-0.03208463876387576
-0.03208463876387576
-0.03208463876387576
-0.03208463876387576
-0.03208463876387576
-0.03208463876387576
-0.03208463876387576
-0.03208463876387576
-0.03208463876387576
-0.03208463876387576
-0.03208463876387576
-0.03208463876387576
-0.03208463876387576
0.011214297614000283
0.011214297614000283
0.011214297614000283
0.011214297614000283
0.011214297614000283
0.011214297614000283
0.011214297614000283
0.011214297614000283
-0.03208463876387576
-0.03208463876387576
-0.03208463876387576
-0.03208463876387576
-0.03208463876387576
-0.03208463876387576
-0.03208463876387576
0.011214297614000283
0.011214297614000283
0.011214297614000283
0.011214297614000283
0.011214297614000283
0.011214297614000283
0.011214297614000283
-0.03208463876387576
-0.03208463876387576
-0.03208463876387576
-0.03208463876387576
-0.03208463876387576
-0.03208463876387576
-0.03208463876387576
-0.03208463876387576
-0.03208463876387576
-0.03208463876387576
-0.03208463876387576
-0.03208463876387576
-0.03208463876387576
-0.03208463876387576
-0.03208463876387576
-0.03208463876387576
-0.03208463876387576
-0.03208463876387576
0.011214297614000283
0.011214297614000283
0.011214297614000283
0.011214297614000283
0.011214297614000283
0.011214297614000283
0.011214297614000283
-0.03208463876387576
-0.03208463876387576
-0.03208463876387576
-0.03208463876387576
-0.03208463876387576
-0.03208463876387576
-0.03208463876387576
-0.03208463876387576
-0.03208463876387576
0.011214297614000283
0.011214297614000283
0.011214297614000283
0.011214297614000283
0.011214297614000283
0.011214297614000283
0.011214297614000283
-0.03208463876387576
-0.03208463876387576
-0.03208463876387576
-0.03208463876387576
-0.03208463876387576
-0.03208463876387576
-0.03208463876387576
-0.03208463876387576
-0.03208463876387576
-0.03208463876387576
-0.03208463876387576
-0.03208463876387576
-0.03208463876387576
-0.03208463876387576
-0.03208463876387576
-0.03208463876387576
0.011214297614000283
0.011214297614000283
0.011214297614000283
0.011214297614000283
0.011214297614000283
0.011214297614000283
0.011214297614000283
-0.03208463876387576
-0.03208463876387576
-0.03208463876387576
-0.03208463876387576
-0.03208463876387576
-0.03208463876387576
-0.03208463876387576
-0.03208463876387576
-0.03208463876387576
-0.03208463876387576
0.011214297614000283
0.011214297614000283
0.011214297614000283
0.011214297614000283
0.011214297614000283
0.011214297614000283
0.011214297614000283
-0.03208463876387576
-0.03208463876387576
-0.03208463876387576
-0.03208463876387576
-0.03208463876387576
-0.03208463876387576
-0.03208463876387576
-0.03208463876387576
-0.03208463876387576
-0.03208463876387576
-0.03208463876387576
-0.03208463876387576
-0.03208463876387576
-0.03208463876387576
-0.03208463876387576
-0.03208463876387576
0.011214297614000283
0.011214297614000283
0.011214297614000283
0.011214297614000283
0.011214297614000283
0.011214297614000283
0.011214297614000283
-0.03208463876387576
-0.03208463876387576
-0.03208463876387576
-0.03208463876387576
-0.03208463876387576
-0.03208463876387576
-0.03208463876387576
-0.03208463876387576
-0.03208463876387576
-0.03208463876387576
0.011214297614000283
0.011214297614000283
0.011214297614000283
0.011214297614000283
0.011214297614000283
0.011214297614000283
0.011214297614000283
-0.03208463876387576
-0.03208463876387576
-0.03208463876387576
-0.03208463876387576
-0.03208463876387576
-0.03208463876387576
-0.03208463876387576
-0.03208463876387576
-0.03208463876387576
-0.03208463876387576
-0.03208463876387576
-0.03208463876387576
-0.03208463876387576
-0.03208463876387576
-0.03208463876387576
-0.03208463876387576
0.011214297614000283
0.011214297614000283
0.011214297614000283
0.011214297614000283
0.011214297614000283
0.011214297614000283
0.011214297614000283
-0.03208463876387576
-0.03208463876387576
-0.03208463876387576
-0.03208463876387576
-0.03208463876387576
-0.03208463876387576
-0.03208463876387576
-0.03208463876387576
-0.03208463876387576
-0.03208463876387576
-0.03208463876387576
0.011214297614000283
0.011214297614000283
0.011214297614000283
0.011214297614000283
0.011214297614000283
0.011214297614000283
-0.03208463876387576
-0.03208463876387576
-0.03208463876387576
-0.03208463876387576
-0.03208463876387576
-0.03208463876387576
-0.03208463876387576
-0.03208463876387576
-0.03208463876387576
-0.03208463876387576
-0.03208463876387576
-0.03208463876387576
-0.03208463876387576
-0.03208463876387576
-0.03208463876387576
-0.03208463876387576
0.011214297614000283
0.011214297614000283
0.011214297614000283
0.011214297614000283
0.011214297614000283
0.011214297614000283
-0.03208463876387576
-0.03208463876387576
-0.03208463876387576
-0.03208463876387576
-0.03208463876387576
-0.03208463876387576
-0.03208463876387576
-0.03208463876387576
-0.03208463876387576
-0.03208463876387576
-0.03208463876387576
-0.03208463876387576
-0.03208463876387576
0.011214297614000283
0.011214297614000283
0.011214297614000283
0.011214297614000283
0.011214297614000283
0.011214297614000283
-0.03208463876387576
-0.03208463876387576
-0.03208463876387576
-0.03208463876387576
-0.03208463876387576
-0.03208463876387576
-0.03208463876387576
-0.03208463876387576
-0.03208463876387576
-0.03208463876387576
-0.03208463876387576
-0.03208463876387576
-0.03208463876387576
-0.03208463876387576
0.011214297614000283
0.011214297614000283
0.011214297614000283
0.011214297614000283
0.011214297614000283
0.011214297614000283
-0.03208463876387576
-0.03208463876387576
-0.03208463876387576
-0.03208463876387576
-0.03208463876387576
-0.03208463876387576
-0.03208463876387576
-0.03208463876387576
-0.03208463876387576
-0.03208463876387576
-0.03208463876387576
-0.03208463876387576
-0.03208463876387576
-0.03208463876387576
-0.03208463876387576
0.011214297614000283
0.011214297614000283
0.011214297614000283
0.011214297614000283
0.011214297614000283
0.011214297614000283
-0.03208463876387576
-0.03208463876387576
-0.03208463876387576
-0.03208463876387576
-0.03208463876387576
-0.03208463876387576
-0.03208463876387576
-0.03208463876387576
-0.03208463876387576
-0.03208463876387576
-0.03208463876387576
-0.03208463876387576
0.011214297614000283
0.011214297614000283
0.011214297614000283
0.011214297614000283
0.011214297614000283
0.011214297614000283
-0.03208463876387576
-0.03208463876387576
-0.03208463876387576
-0.03208463876387576
-0.03208463876387576
-0.03208463876387576
-0.03208463876387576
-0.03208463876387576
-0.03208463876387576
-0.03208463876387576
-0.03208463876387576
-0.03208463876387576
-0.03208463876387576
-0.03208463876387576
-0.03208463876387576
-0.03208463876387576
0.011214297614000283
0.011214297614000283
0.011214297614000283
0.011214297614000283
0.011214297614000283
0.011214297614000283
0.011214297614000283
-0.03208463876387576
-0.03208463876387576
-0.03208463876387576
-0.03208463876387576
-0.03208463876387576
-0.03208463876387576
-0.03208463876387576
-0.03208463876387576
-0.03208463876387576
-0.03208463876387576
0.011214297614000283
0.011214297614000283
0.011214297614000283
0.011214297614000283
0.011214297614000283
0.011214297614000283
0.011214297614000283
-0.03208463876387576
-0.03208463876387576
-0.03208463876387576
-0.03208463876387576
-0.03208463876387576
-0.03208463876387576
-0.03208463876387576
-0.03208463876387576
-0.03208463876387576
-0.03208463876387576
-0.03208463876387576
-0.03208463876387576
-0.03208463876387576
-0.03208463876387576
-0.03208463876387576
-0.03208463876387576
-0.03208463876387576
0.011214297614000283
0.011214297614000283
0.011214297614000283
0.011214297614000283
0.011214297614000283
0.011214297614000283
-0.03208463876387576
-0.03208463876387576
-0.03208463876387576
-0.03208463876387576
-0.03208463876387576
-0.03208463876387576
-0.03208463876387576
-0.03208463876387576
-0.03208463876387576
-0.03208463876387576
0.011214297614000283
0.011214297614000283
0.011214297614000283
0.011214297614000283
0.011214297614000283
0.011214297614000283
-0.03208463876387576
-0.03208463876387576
-0.03208463876387576
-0.03208463876387576
-0.03208463876387576
-0.03208463876387576
-0.03208463876387576
-0.03208463876387576
-0.03208463876387576
-0.03208463876387576
-0.03208463876387576
-0.03208463876387576
-0.03208463876387576
-0.03208463876387576
-0.03208463876387576
-0.03208463876387576
-0.03208463876387576
-0.03208463876387576
-0.03208463876387576
-0.03208463876387576
0.011214297614000283
0.011214297614000283
0.011214297614000283
0.011214297614000283
0.011214297614000283
0.011214297614000283
0.011214297614000283
-0.03208463876387576
-0.03208463876387576
-0.03208463876387576
-0.03208463876387576
0.011214297614000283
0.011214297614000283
0.011214297614000283
0.011214297614000283
0.011214297614000283
0.011214297614000283
0.011214297614000283
-0.03208463876387576
-0.03208463876387576
-0.03208463876387576
-0.03208463876387576
-0.03208463876387576
-0.03208463876387576
-0.03208463876387576
-0.03208463876387576
-0.03208463876387576
-0.03208463876387576
-0.03208463876387576
-0.03208463876387576
-0.03208463876387576
-0.03208463876387576
-0.03208463876387576
-0.03208463876387576
-0.03208463876387576
-0.03208463876387576
-0.03208463876387576
-0.03208463876387576
-0.03208463876387576
-0.03208463876387576
-0.03208463876387576
0.011214297614000283
0.011214297614000283
0.011214297614000283
0.011214297614000283
0.011214297614000283
0.011214297614000283
0.011214297614000283
0.011214297614000283
0.011214297614000283
0.011214297614000283
0.011214297614000283
0.011214297614000283
0.011214297614000283
0.011214297614000283
0.011214297614000283
0.011214297614000283
-0.03208463876387576
-0.03208463876387576
-0.03208463876387576
-0.03208463876387576
-0.03208463876387576
-0.03208463876387576
-0.03208463876387576
-0.03208463876387576
-0.03208463876387576
-0.03208463876387576
-0.03208463876387576
-0.03208463876387576
-0.03208463876387576
-0.03208463876387576
-0.03208463876387576
-0.03208463876387576
-0.03208463876387576
-0.03208463876387576
-0.03208463876387576
-0.03208463876387576
-0.03208463876387576
-0.03208463876387576
-0.03208463876387576
-0.03208463876387576
-0.03208463876387576
0.011214297614000283
0.011214297614000283
0.011214297614000283
0.011214297614000283
0.011214297614000283
0.011214297614000283
0.011214297614000283
0.011214297614000283
0.011214297614000283
0.011214297614000283
0.011214297614000283
0.011214297614000283
0.011214297614000283
0.011214297614000283
-0.03208463876387576
-0.03208463876387576
-0.03208463876387576
-0.03208463876387576
-0.03208463876387576
-0.03208463876387576
-0.03208463876387576
-0.03208463876387576
-0.03208463876387576
-0.03208463876387576
-0.03208463876387576
-0.03208463876387576
-0.03208463876387576
-0.03208463876387576
-0.03208463876387576
-0.03208463876387576
-0.03208463876387576
-0.03208463876387576
-0.03208463876387576
-0.03208463876387576
-0.03208463876387576
-0.03208463876387576
-0.03208463876387576
-0.03208463876387576
-0.03208463876387576
-0.03208463876387576
-0.03208463876387576
-0.03208463876387576
-0.03208463876387576
-0.03208463876387576
0.011214297614000283
0.011214297614000283
0.011214297614000283
0.011214297614000283
0.011214297614000283
-0.03208463876387576
-0.03208463876387576
-0.03208463876387576
-0.03208463876387576
-0.03208463876387576
-0.03208463876387576
-0.03208463876387576
-0.03208463876387576
-0.03208463876387576
-0.03208463876387576
-0.03208463876387576
-0.03208463876387576
-0.03208463876387576
-0.03208463876387576
-0.03208463876387576
-0.03208463876387576
-0.03208463876387576
-0.03208463876387576
-0.02571431933558311
-0.02571431933558311
-0.02571431933558311
-0.02571431933558311
-0.02571431933558311
-0.02571431933558311
-0.02571431933558311
-0.02571431933558311
-0.02571431933558311
-0.02571431933558311
-0.02571431933558311
-0.02571431933558311
-0.02571431933558311
-0.02571431933558311
-0.02571431933558311
-0.02571431933558311
-0.02571431933558311
-0.02571431933558311
-0.02571431933558311
-0.02571431933558311
-0.02571431933558311
-0.02571431933558311
-0.02571431933558311
-0.02571431933558311
0.01100929793523976
-0.02571431933558311
-0.02571431933558311
-0.02571431933558311
-0.02571431933558311
-0.02571431933558311
-0.02571431933558311
-0.02571431933558311
-0.02571431933558311
-0.02571431933558311
-0.02571431933558311
-0.02571431933558311
-0.02571431933558311
-0.02571431933558311
-0.02571431933558311
-0.02571431933558311
-0.02571431933558311
-0.02571431933558311
-0.02571431933558311
-0.02571431933558311
-0.02571431933558311
-0.02571431933558311
-0.02571431933558311
-0.02571431933558311
-0.02571431933558311
-0.02571431933558311
-0.02571431933558311
-0.02571431933558311
-0.02571431933558311
-0.02571431933558311
-0.02571431933558311
-0.02571431933558311
0.01100929793523976
0.01100929793523976
0.01100929793523976
0.01100929793523976
0.01100929793523976
0.01100929793523976
0.01100929793523976
0.01100929793523976
0.01100929793523976
0.01100929793523976
0.01100929793523976
-0.02571431933558311
-0.02571431933558311
-0.02571431933558311
-0.02571431933558311
-0.02571431933558311
-0.02571431933558311
-0.02571431933558311
-0.02571431933558311
-0.02571431933558311
-0.02571431933558311
-0.02571431933558311
-0.02571431933558311
-0.02571431933558311
-0.02571431933558311
-0.02571431933558311
-0.02571431933558311
-0.02571431933558311
-0.02571431933558311
-0.02571431933558311
-0.02571431933558311
-0.02571431933558311
-0.02571431933558311
-0.02571431933558311
-0.02571431933558311
-0.02571431933558311
-0.02571431933558311
0.01100929793523976
0.01100929793523976
0.01100929793523976
0.01100929793523976
0.01100929793523976
0.01100929793523976
0.01100929793523976
0.01100929793523976
0.01100929793523976
0.01100929793523976
0.01100929793523976
0.01100929793523976
0.01100929793523976
0.01100929793523976
-0.02571431933558311
-0.02571431933558311
-0.02571431933558311
-0.02571431933558311
-0.02571431933558311
-0.02571431933558311
-0.02571431933558311
-0.02571431933558311
-0.02571431933558311
-0.02571431933558311
-0.02571431933558311
-0.02571431933558311
-0.02571431933558311
-0.02571431933558311
-0.02571431933558311
-0.02571431933558311
-0.02571431933558311
-0.02571431933558311
-0.02571431933558311
-0.02571431933558311
-0.02571431933558311
-0.02571431933558311
-0.02571431933558311
0.01100929793523976
0.01100929793523976
0.01100929793523976
0.01100929793523976
0.01100929793523976
0.01100929793523976
0.01100929793523976
0.01100929793523976
0.01100929793523976
0.01100929793523976
0.01100929793523976
0.01100929793523976
0.01100929793523976
0.01100929793523976
0.01100929793523976
0.01100929793523976
0.01100929793523976
-0.02571431933558311
-0.02571431933558311
-0.02571431933558311
-0.02571431933558311
-0.02571431933558311
-0.02571431933558311
-0.02571431933558311
-0.02571431933558311
-0.02571431933558311
-0.02571431933558311
-0.02571431933558311
-0.02571431933558311
-0.02571431933558311
-0.02571431933558311
-0.02571431933558311
-0.02571431933558311
-0.02571431933558311
0.01100929793523976
0.01100929793523976
0.01100929793523976
0.01100929793523976
0.01100929793523976
0.01100929793523976
0.01100929793523976
0.01100929793523976
0.01100929793523976
0.01100929793523976
0.01100929793523976
0.01100929793523976
0.01100929793523976
0.01100929793523976
0.01100929793523976
0.01100929793523976
0.01100929793523976
0.01100929793523976
0.01100929793523976
0.01100929793523976
0.01100929793523976
0.01100929793523976
0.01100929793523976
-0.02571431933558311
-0.02571431933558311
-0.02571431933558311
-0.02571431933558311
-0.02571431933558311
-0.02571431933558311
-0.02571431933558311
-0.02571431933558311
-0.02571431933558311
-0.02571431933558311
-0.02571431933558311
-0.02571431933558311
-0.02571431933558311
-0.02571431933558311
0.01100929793523976
0.01100929793523976
0.01100929793523976
0.01100929793523976
0.01100929793523976
0.01100929793523976
0.01100929793523976
0.01100929793523976
0.01100929793523976
0.01100929793523976
0.01100929793523976
0.01100929793523976
0.01100929793523976
0.01100929793523976
0.01100929793523976
0.01100929793523976
0.01100929793523976
0.01100929793523976
0.01100929793523976
0.01100929793523976
0.01100929793523976
0.01100929793523976
0.01100929793523976
0.01100929793523976
0.01100929793523976
0.01100929793523976
-0.02571431933558311
-0.02571431933558311
-0.02571431933558311
-0.02571431933558311
-0.02571431933558311
-0.02571431933558311
-0.02571431933558311
-0.02571431933558311
-0.02571431933558311
-0.02571431933558311
-0.02571431933558311
-0.02571431933558311
-0.02571431933558311
0.01100929793523976
0.01100929793523976
0.01100929793523976
0.01100929793523976
0.01100929793523976
0.01100929793523976
0.01100929793523976
0.01100929793523976
0.01100929793523976
0.01100929793523976
0.01100929793523976
0.01100929793523976
0.01100929793523976
0.01100929793523976
0.01100929793523976
0.01100929793523976
0.01100929793523976
0.01100929793523976
0.01100929793523976
0.01100929793523976
0.01100929793523976
0.01100929793523976
0.01100929793523976
0.01100929793523976
0.01100929793523976
0.01100929793523976
0.01100929793523976
-0.02571431933558311
-0.02571431933558311
-0.02571431933558311
-0.02571431933558311
-0.02571431933558311
-0.02571431933558311
-0.02571431933558311
-0.02571431933558311
-0.02571431933558311
-0.02571431933558311
-0.02571431933558311
-0.02571431933558311
-0.02571431933558311
-0.02571431933558311
-0.02571431933558311
-0.02571431933558311
-0.02571431933558311
-0.02571431933558311
-0.02571431933558311
-0.02571431933558311
-0.02571431933558311
-0.02571431933558311
-0.02571431933558311
0.01100929793523976
0.01100929793523976
0.01100929793523976
0.01100929793523976
0.01100929793523976
0.01100929793523976
0.01100929793523976
0.01100929793523976
0.01100929793523976
0.01100929793523976
0.01100929793523976
0.01100929793523976
0.01100929793523976
0.01100929793523976
0.01100929793523976
0.01100929793523976
0.01100929793523976
-0.02571431933558311
-0.02571431933558311
-0.02571431933558311
-0.02571431933558311
-0.02571431933558311
-0.02571431933558311
-0.02571431933558311
-0.02571431933558311
-0.02571431933558311
-0.02571431933558311
-0.02571431933558311
-0.02571431933558311
-0.02571431933558311
-0.02571431933558311
-0.02571431933558311
-0.02571431933558311
-0.02571431933558311
-0.02571431933558311
-0.02571431933558311
-0.02571431933558311
-0.02571431933558311
-0.02571431933558311
-0.02571431933558311
-0.02571431933558311
-0.02571431933558311
0.01100929793523976
0.01100929793523976
0.01100929793523976
0.01100929793523976
0.01100929793523976
0.01100929793523976
0.01100929793523976
0.01100929793523976
0.01100929793523976
0.01100929793523976
0.01100929793523976
0.01100929793523976
0.01100929793523976
0.01100929793523976
0.01100929793523976
-0.02571431933558311
-0.02571431933558311
-0.02571431933558311
-0.02571431933558311
-0.02571431933558311
-0.02571431933558311
-0.02571431933558311
-0.02571431933558311
-0.02571431933558311
-0.02571431933558311
-0.02571431933558311
-0.02571431933558311
-0.02571431933558311
-0.02571431933558311
-0.02571431933558311
-0.02571431933558311
-0.02571431933558311
-0.02571431933558311
-0.02571431933558311
-0.02571431933558311
-0.02571431933558311
-0.02571431933558311
-0.02571431933558311
-0.02571431933558311
-0.02571431933558311
0.01100929793523976
0.01100929793523976
0.01100929793523976
0.01100929793523976
0.01100929793523976
0.01100929793523976
0.01100929793523976
0.01100929793523976
0.01100929793523976
0.01100929793523976
0.01100929793523976
0.01100929793523976
0.01100929793523976
0.01100929793523976
0.01100929793523976
-0.02571431933558311
-0.02571431933558311
-0.02571431933558311
-0.02571431933558311
-0.02571431933558311
-0.02571431933558311
-0.02571431933558311
-0.02571431933558311
-0.02571431933558311
-0.02571431933558311
-0.02571431933558311
-0.02571431933558311
-0.02571431933558311
-0.02571431933558311
-0.02571431933558311
-0.02571431933558311
-0.02571431933558311
-0.02571431933558311
-0.02571431933558311
-0.02571431933558311
-0.02571431933558311
-0.02571431933558311
-0.02571431933558311
-0.02571431933558311
-0.02571431933558311
0.01100929793523976
0.01100929793523976
0.01100929793523976
0.01100929793523976
0.01100929793523976
0.01100929793523976
0.01100929793523976
0.01100929793523976
0.01100929793523976
0.01100929793523976
0.01100929793523976
0.01100929793523976
0.01100929793523976
0.01100929793523976
0.01100929793523976
-0.02571431933558311
-0.02571431933558311
-0.02571431933558311
-0.02571431933558311
-0.02571431933558311
-0.02571431933558311
-0.02571431933558311
-0.02571431933558311
-0.02571431933558311
-0.02571431933558311
-0.02571431933558311
-0.02571431933558311
-0.02571431933558311
-0.02571431933558311
-0.02571431933558311
-0.02571431933558311
-0.02571431933558311
-0.02571431933558311
-0.02571431933558311
-0.02571431933558311
-0.02571431933558311
-0.02571431933558311
-0.02571431933558311
-0.02571431933558311
-0.02571431933558311
-0.02571431933558311
0.01100929793523976
0.01100929793523976
0.01100929793523976
0.01100929793523976
0.01100929793523976
0.01100929793523976
0.01100929793523976
0.01100929793523976
0.01100929793523976
0.01100929793523976
0.01100929793523976
0.01100929793523976
0.01100929793523976
0.01100929793523976
-0.02571431933558311
-0.02571431933558311
-0.02571431933558311
-0.02571431933558311
-0.02571431933558311
-0.02571431933558311
-0.02571431933558311
-0.02571431933558311
-0.02571431933558311
-0.02571431933558311
-0.02571431933558311
-0.02571431933558311
-0.02571431933558311
-0.02571431933558311
-0.02571431933558311
-0.02571431933558311
-0.02571431933558311
-0.02571431933558311
-0.02571431933558311
-0.02571431933558311
-0.02571431933558311
-0.02571431933558311
-0.02571431933558311
-0.02571431933558311
-0.02571431933558311
-0.02571431933558311
0.01100929793523976
0.01100929793523976
0.01100929793523976
0.01100929793523976
0.01100929793523976
0.01100929793523976
0.01100929793523976
0.01100929793523976
0.01100929793523976
0.01100929793523976
0.01100929793523976
0.01100929793523976
0.01100929793523976
0.01100929793523976
-0.02571431933558311
-0.02571431933558311
-0.02571431933558311
-0.02571431933558311
-0.02571431933558311
-0.02571431933558311
-0.02571431933558311
-0.02571431933558311
-0.02571431933558311
-0.02571431933558311
-0.02571431933558311
-0.02571431933558311
-0.02571431933558311
-0.02571431933558311
-0.02571431933558311
-0.02571431933558311
-0.02571431933558311
-0.02571431933558311
-0.02571431933558311
-0.02571431933558311
-0.02571431933558311
-0.02571431933558311
-0.02571431933558311
-0.02571431933558311
-0.02571431933558311
-0.02571431933558311
0.01100929793523976
0.01100929793523976
0.01100929793523976
0.01100929793523976
0.01100929793523976
0.01100929793523976
0.01100929793523976
0.01100929793523976
0.01100929793523976
0.01100929793523976
0.01100929793523976
0.01100929793523976
0.01100929793523976
0.01100929793523976
-0.02571431933558311
-0.02571431933558311
-0.02571431933558311
-0.02571431933558311
-0.02571431933558311
-0.02571431933558311
-0.02571431933558311
-0.02571431933558311
-0.02571431933558311
-0.02571431933558311
-0.02571431933558311
-0.02571431933558311
-0.02571431933558311
-0.02571431933558311
-0.02571431933558311
-0.02571431933558311
-0.02571431933558311
-0.02571431933558311
-0.02571431933558311
-0.02571431933558311
-0.02571431933558311
-0.02571431933558311
-0.02571431933558311
-0.02571431933558311
-0.02571431933558311
-0.02571431933558311
0.01100929793523976
0.01100929793523976
0.01100929793523976
0.01100929793523976
0.01100929793523976
0.01100929793523976
0.01100929793523976
0.01100929793523976
0.01100929793523976
0.01100929793523976
0.01100929793523976
0.01100929793523976
0.01100929793523976
0.01100929793523976
-0.02571431933558311
-0.02571431933558311
-0.02571431933558311
-0.02571431933558311
-0.02571431933558311
-0.02571431933558311
-0.02571431933558311
-0.02571431933558311
-0.02571431933558311
-0.02571431933558311
-0.02571431933558311
-0.02571431933558311
-0.02571431933558311
-0.02571431933558311
-0.02571431933558311
-0.02571431933558311
-0.02571431933558311
-0.02571431933558311
-0.02571431933558311
-0.02571431933558311
-0.02571431933558311
-0.02571431933558311
-0.02571431933558311
-0.02571431933558311
-0.02571431933558311
-0.02571431933558311
0.01100929793523976
0.01100929793523976
0.01100929793523976
0.01100929793523976
0.01100929793523976
0.01100929793523976
0.01100929793523976
0.01100929793523976
0.01100929793523976
0.01100929793523976
0.01100929793523976
0.01100929793523976
0.01100929793523976
0.01100929793523976
-0.02571431933558311
-0.02571431933558311
-0.02571431933558311
-0.02571431933558311
-0.02571431933558311
-0.02571431933558311
-0.02571431933558311
-0.02571431933558311
-0.02571431933558311
-0.02571431933558311
-0.02571431933558311
-0.02571431933558311
-0.02571431933558311
-0.02571431933558311
-0.02571431933558311
-0.02571431933558311
-0.02571431933558311
-0.02571431933558311
-0.02571431933558311
-0.02571431933558311
-0.02571431933558311
-0.02571431933558311
-0.02571431933558311
-0.02571431933558311
-0.02571431933558311
-0.02571431933558311
0.01100929793523976
0.01100929793523976
0.01100929793523976
0.01100929793523976
0.01100929793523976
0.01100929793523976
0.01100929793523976
0.01100929793523976
0.01100929793523976
0.01100929793523976
0.01100929793523976
0.01100929793523976
0.01100929793523976
0.01100929793523976
-0.02571431933558311
-0.02571431933558311
-0.02571431933558311
-0.02571431933558311
-0.02571431933558311
-0.02571431933558311
-0.02571431933558311
-0.02571431933558311
-0.02571431933558311
-0.02571431933558311
-0.02571431933558311
-0.02571431933558311
-0.02571431933558311
-0.02571431933558311
-0.02571431933558311
-0.02571431933558311
-0.02571431933558311
-0.02571431933558311
-0.02571431933558311
-0.02571431933558311
-0.02571431933558311
-0.02571431933558311
-0.02571431933558311
-0.02571431933558311
-0.02571431933558311
-0.02571431933558311
0.01100929793523976
0.01100929793523976
0.01100929793523976
0.01100929793523976
0.01100929793523976
0.01100929793523976
0.01100929793523976
0.01100929793523976
0.01100929793523976
0.01100929793523976
0.01100929793523976
0.01100929793523976
0.01100929793523976
0.01100929793523976
-0.02571431933558311
-0.02571431933558311
-0.02571431933558311
-0.02571431933558311
-0.02571431933558311
-0.02571431933558311
-0.02571431933558311
-0.02571431933558311
-0.02571431933558311
-0.02571431933558311
-0.02571431933558311
-0.02571431933558311
-0.02571431933558311
-0.02571431933558311
-0.02571431933558311
-0.02571431933558311
-0.02571431933558311
-0.02571431933558311
-0.02571431933558311
-0.02571431933558311
-0.02571431933558311
-0.02571431933558311
-0.02571431933558311
-0.02571431933558311
-0.02571431933558311
-0.02571431933558311
0.01100929793523976
0.01100929793523976
0.01100929793523976
0.01100929793523976
0.01100929793523976
0.01100929793523976
0.01100929793523976
0.01100929793523976
0.01100929793523976
0.01100929793523976
0.01100929793523976
0.01100929793523976
0.01100929793523976
0.01100929793523976
-0.02571431933558311
-0.02571431933558311
-0.02571431933558311
-0.02571431933558311
-0.02571431933558311
-0.02571431933558311
-0.02571431933558311
-0.02571431933558311
-0.02571431933558311
-0.02571431933558311
-0.02571431933558311
-0.02571431933558311
-0.02571431933558311
-0.02571431933558311
-0.02571431933558311
-0.02571431933558311
-0.02571431933558311
-0.02571431933558311
-0.02571431933558311
-0.02571431933558311
-0.02571431933558311
-0.02571431933558311
-0.02571431933558311
-0.02571431933558311
-0.02571431933558311
-0.02571431933558311
0.01100929793523976
0.01100929793523976
0.01100929793523976
0.01100929793523976
0.01100929793523976
0.01100929793523976
0.01100929793523976
0.01100929793523976
0.01100929793523976
0.01100929793523976
0.01100929793523976
0.01100929793523976
0.01100929793523976
0.01100929793523976
-0.02571431933558311
-0.02571431933558311
-0.02571431933558311
-0.02571431933558311
-0.02571431933558311
-0.02571431933558311
-0.02571431933558311
-0.02571431933558311
-0.02571431933558311
-0.02571431933558311
-0.02571431933558311
-0.02571431933558311
-0.02571431933558311
-0.02571431933558311
-0.02571431933558311
-0.02571431933558311
-0.02571431933558311
-0.02571431933558311
-0.02571431933558311
-0.02571431933558311
-0.02571431933558311
-0.02571431933558311
-0.02571431933558311
-0.02571431933558311
-0.02571431933558311
-0.02571431933558311
0.01100929793523976
0.01100929793523976
0.01100929793523976
0.01100929793523976
0.01100929793523976
0.01100929793523976
0.01100929793523976
0.01100929793523976
0.01100929793523976
0.01100929793523976
0.01100929793523976
0.01100929793523976
0.01100929793523976
0.01100929793523976
-0.02571431933558311
-0.02571431933558311
-0.02571431933558311
-0.02571431933558311
-0.02571431933558311
-0.02571431933558311
-0.02571431933558311
-0.02571431933558311
-0.02571431933558311
-0.02571431933558311
-0.02571431933558311
-0.02571431933558311
-0.02571431933558311
-0.02571431933558311
-0.02571431933558311
-0.02571431933558311
-0.02571431933558311
-0.02571431933558311
-0.02571431933558311
-0.02571431933558311
-0.02571431933558311
-0.02571431933558311
-0.02571431933558311
-0.02571431933558311
-0.02571431933558311
-0.02571431933558311
0.01100929793523976
0.01100929793523976
0.01100929793523976
0.01100929793523976
0.01100929793523976
0.01100929793523976
0.01100929793523976
0.01100929793523976
0.01100929793523976
0.01100929793523976
0.01100929793523976
0.01100929793523976
0.01100929793523976
0.01100929793523976
-0.02571431933558311
-0.02571431933558311
-0.02571431933558311
-0.02571431933558311
-0.02571431933558311
-0.02571431933558311
-0.02571431933558311
-0.02571431933558311
-0.02571431933558311
-0.02571431933558311
-0.02571431933558311
-0.02571431933558311
-0.02571431933558311
-0.02571431933558311
-0.02571431933558311
-0.02571431933558311
-0.02571431933558311
-0.02571431933558311
-0.02571431933558311
-0.02571431933558311
-0.02571431933558311
-0.02571431933558311
-0.02571431933558311
-0.02571431933558311
-0.02571431933558311
-0.02571431933558311
0.01100929793523976
0.01100929793523976
0.01100929793523976
0.01100929793523976
0.01100929793523976
0.01100929793523976
0.01100929793523976
0.01100929793523976
0.01100929793523976
0.01100929793523976
0.01100929793523976
0.01100929793523976
0.01100929793523976
0.01100929793523976
-0.02571431933558311
-0.02571431933558311
-0.02571431933558311
-0.02571431933558311
-0.02571431933558311
-0.02571431933558311
-0.02571431933558311
-0.02571431933558311
-0.02571431933558311
-0.02571431933558311
-0.02571431933558311
-0.02571431933558311
-0.02571431933558311
-0.02571431933558311
-0.02571431933558311
-0.02571431933558311
-0.02571431933558311
-0.02571431933558311
-0.02571431933558311
-0.02571431933558311
-0.02571431933558311
-0.02571431933558311
-0.02571431933558311
-0.02571431933558311
-0.02571431933558311
-0.02571431933558311
0.01100929793523976
0.01100929793523976
0.01100929793523976
0.01100929793523976
0.01100929793523976
0.01100929793523976
0.01100929793523976
0.01100929793523976
0.01100929793523976
0.01100929793523976
0.01100929793523976
0.01100929793523976
0.01100929793523976
0.01100929793523976
-0.02571431933558311
-0.02571431933558311
-0.02571431933558311
-0.02571431933558311
-0.02571431933558311
-0.02571431933558311
-0.02571431933558311
-0.02571431933558311
-0.02571431933558311
-0.02571431933558311
-0.02571431933558311
-0.02571431933558311
-0.02571431933558311
-0.02571431933558311
-0.02571431933558311
-0.02571431933558311
-0.02571431933558311
-0.02571431933558311
-0.02571431933558311
-0.02571431933558311
-0.02571431933558311
-0.02571431933558311
-0.02571431933558311
-0.02571431933558311
-0.02571431933558311
-0.02571431933558311
0.01100929793523976
0.01100929793523976
0.01100929793523976
0.01100929793523976
0.01100929793523976
0.01100929793523976
0.01100929793523976
0.01100929793523976
0.01100929793523976
0.01100929793523976
0.01100929793523976
0.01100929793523976
0.01100929793523976
0.01100929793523976
-0.02571431933558311
-0.02571431933558311
-0.02571431933558311
-0.02571431933558311
-0.02571431933558311
-0.02571431933558311
-0.02571431933558311
-0.02571431933558311
-0.02571431933558311
-0.02571431933558311
-0.02571431933558311
-0.02571431933558311
-0.02571431933558311
-0.02571431933558311
-0.02571431933558311
-0.02571431933558311
-0.02571431933558311
-0.02571431933558311
-0.02571431933558311
-0.02571431933558311
-0.02571431933558311
-0.02571431933558311
-0.02571431933558311
-0.02571431933558311
-0.02571431933558311
-0.02571431933558311
0.01100929793523976
0.01100929793523976
0.01100929793523976
0.01100929793523976
0.01100929793523976
0.01100929793523976
0.01100929793523976
0.01100929793523976
0.01100929793523976
0.01100929793523976
0.01100929793523976
0.01100929793523976
0.01100929793523976
0.01100929793523976
-0.02571431933558311
-0.02571431933558311
-0.02571431933558311
-0.02571431933558311
-0.02571431933558311
-0.02571431933558311
-0.02571431933558311
-0.02571431933558311
-0.02571431933558311
-0.02571431933558311
-0.02571431933558311
-0.02571431933558311
-0.02571431933558311
-0.02571431933558311
-0.02571431933558311
-0.02571431933558311
-0.02571431933558311
-0.02571431933558311
-0.02571431933558311
-0.02571431933558311
-0.02571431933558311
-0.02571431933558311
-0.02571431933558311
-0.02571431933558311
-0.02571431933558311
-0.02571431933558311
0.01100929793523976
0.01100929793523976
0.01100929793523976
0.01100929793523976
0.01100929793523976
0.01100929793523976
0.01100929793523976
0.01100929793523976
0.01100929793523976
0.01100929793523976
0.01100929793523976
0.01100929793523976
0.01100929793523976
0.01100929793523976
-0.02571431933558311
-0.02571431933558311
-0.02571431933558311
-0.02571431933558311
-0.02571431933558311
-0.02571431933558311
-0.02571431933558311
-0.02571431933558311
-0.02571431933558311
-0.02571431933558311
-0.02571431933558311
-0.02571431933558311
-0.02571431933558311
-0.02571431933558311
-0.02571431933558311
-0.02571431933558311
-0.02571431933558311
-0.02571431933558311
-0.02571431933558311
-0.02571431933558311
-0.02571431933558311
-0.02571431933558311
-0.02571431933558311
-0.02571431933558311
-0.02571431933558311
-0.02571431933558311
0.01100929793523976
0.01100929793523976
0.01100929793523976
0.01100929793523976
0.01100929793523976
0.01100929793523976
0.01100929793523976
0.01100929793523976
0.01100929793523976
0.01100929793523976
0.01100929793523976
0.01100929793523976
0.01100929793523976
0.01100929793523976
-0.02571431933558311
-0.02571431933558311
-0.02571431933558311
-0.02571431933558311
-0.02571431933558311
-0.02571431933558311
-0.02571431933558311
-0.02571431933558311
-0.02571431933558311
-0.02571431933558311
-0.02571431933558311
-0.02571431933558311
-0.02571431933558311
-0.02571431933558311
-0.02571431933558311
-0.02571431933558311
-0.02571431933558311
-0.02571431933558311
-0.02571431933558311
-0.02571431933558311
-0.02571431933558311
-0.02571431933558311
-0.02571431933558311
-0.02571431933558311
-0.02571431933558311
-0.02571431933558311
0.01100929793523976
0.01100929793523976
0.01100929793523976
0.01100929793523976
0.01100929793523976
0.01100929793523976
0.01100929793523976
0.01100929793523976
0.01100929793523976
0.01100929793523976
0.01100929793523976
0.01100929793523976
0.01100929793523976
0.01100929793523976
-0.02571431933558311
-0.02571431933558311
-0.02571431933558311
-0.02571431933558311
-0.02571431933558311
-0.02571431933558311
-0.02571431933558311
-0.02571431933558311
-0.02571431933558311
-0.02571431933558311
-0.02571431933558311
-0.02571431933558311
-0.02571431933558311
-0.02571431933558311
-0.02571431933558311
-0.02571431933558311
-0.02571431933558311
-0.02571431933558311
-0.02571431933558311
-0.02571431933558311
-0.02571431933558311
-0.02571431933558311
-0.02571431933558311
-0.02571431933558311
-0.02571431933558311
-0.02571431933558311
0.01100929793523976
0.01100929793523976
0.01100929793523976
0.01100929793523976
0.01100929793523976
0.01100929793523976
0.01100929793523976
0.01100929793523976
0.01100929793523976
0.01100929793523976
0.01100929793523976
0.01100929793523976
0.01100929793523976
0.01100929793523976
-0.02571431933558311
-0.02571431933558311
-0.02571431933558311
-0.02571431933558311
-0.02571431933558311
-0.02571431933558311
-0.02571431933558311
-0.02571431933558311
-0.02571431933558311
-0.02571431933558311
-0.02571431933558311
-0.02571431933558311
-0.02571431933558311
-0.02571431933558311
-0.02571431933558311
-0.02571431933558311
-0.02571431933558311
-0.02571431933558311
-0.02571431933558311
-0.02571431933558311
-0.02571431933558311
-0.02571431933558311
-0.02571431933558311
-0.02571431933558311
-0.02571431933558311
-0.02571431933558311
0.01100929793523976
0.01100929793523976
0.01100929793523976
0.01100929793523976
0.01100929793523976
0.01100929793523976
0.01100929793523976
0.01100929793523976
0.01100929793523976
0.01100929793523976
0.01100929793523976
0.01100929793523976
0.01100929793523976
0.01100929793523976
-0.02571431933558311
-0.02571431933558311
-0.02571431933558311
-0.02571431933558311
-0.02571431933558311
-0.02571431933558311
-0.02571431933558311
-0.02571431933558311
-0.02571431933558311
-0.02571431933558311
-0.02571431933558311
-0.02571431933558311
-0.02571431933558311
-0.02571431933558311
-0.02571431933558311
-0.02571431933558311
-0.02571431933558311
-0.02571431933558311
-0.02571431933558311
-0.02571431933558311
-0.02571431933558311
-0.02571431933558311
-0.02571431933558311
-0.02571431933558311
-0.02571431933558311
-0.02571431933558311
0.01100929793523976
0.01100929793523976
0.01100929793523976
0.01100929793523976
0.01100929793523976
0.01100929793523976
0.01100929793523976
0.01100929793523976
0.01100929793523976
0.01100929793523976
0.01100929793523976
0.01100929793523976
0.01100929793523976
0.01100929793523976
-0.02571431933558311
-0.02571431933558311
-0.02571431933558311
-0.02571431933558311
-0.02571431933558311
-0.02571431933558311
-0.02571431933558311
-0.02571431933558311
-0.02571431933558311
-0.02571431933558311
-0.02571431933558311
-0.02571431933558311
-0.02571431933558311
-0.02571431933558311
-0.02571431933558311
-0.02571431933558311
-0.02571431933558311
-0.02571431933558311
-0.02571431933558311
-0.02571431933558311
-0.02571431933558311
-0.02571431933558311
-0.02571431933558311
-0.02571431933558311
-0.02571431933558311
-0.02571431933558311
0.01100929793523976
0.01100929793523976
0.01100929793523976
0.01100929793523976
0.01100929793523976
0.01100929793523976
0.01100929793523976
0.01100929793523976
0.01100929793523976
0.01100929793523976
0.01100929793523976
0.01100929793523976
0.01100929793523976
0.01100929793523976
-0.02571431933558311
-0.02571431933558311
-0.02571431933558311
-0.02571431933558311
-0.02571431933558311
-0.02571431933558311
-0.02571431933558311
-0.02571431933558311
-0.02571431933558311
-0.02571431933558311
-0.02571431933558311
-0.02571431933558311
-0.02571431933558311
-0.02571431933558311
-0.02571431933558311
-0.02571431933558311
-0.02571431933558311
-0.02571431933558311
-0.02571431933558311
-0.02571431933558311
-0.02571431933558311
-0.02571431933558311
-0.02571431933558311
-0.02571431933558311
-0.02571431933558311
-0.02571431933558311
0.01100929793523976
0.01100929793523976
0.01100929793523976
0.01100929793523976
0.01100929793523976
0.01100929793523976
0.01100929793523976
0.01100929793523976
0.01100929793523976
0.01100929793523976
0.01100929793523976
0.01100929793523976
0.01100929793523976
0.01100929793523976
-0.02571431933558311
-0.02571431933558311
-0.02571431933558311
-0.02571431933558311
-0.02571431933558311
-0.02571431933558311
-0.02571431933558311
-0.02571431933558311
-0.02571431933558311
-0.02571431933558311
-0.02571431933558311
-0.02571431933558311
-0.02571431933558311
-0.02571431933558311
-0.02571431933558311
-0.02571431933558311
-0.02571431933558311
-0.02571431933558311
-0.02571431933558311
-0.02571431933558311
-0.02571431933558311
-0.02571431933558311
-0.02571431933558311
-0.02571431933558311
-0.02571431933558311
-0.02571431933558311
0.01100929793523976
0.01100929793523976
0.01100929793523976
0.01100929793523976
0.01100929793523976
0.01100929793523976
0.01100929793523976
0.01100929793523976
0.01100929793523976
0.01100929793523976
0.01100929793523976
0.01100929793523976
0.01100929793523976
0.01100929793523976
-0.02571431933558311
-0.02571431933558311
-0.02571431933558311
-0.02571431933558311
-0.02571431933558311
-0.02571431933558311
-0.02571431933558311
-0.02571431933558311
-0.02571431933558311
-0.02571431933558311
-0.02571431933558311
-0.02571431933558311
-0.02571431933558311
-0.02571431933558311
-0.02571431933558311
-0.02571431933558311
-0.02571431933558311
-0.02571431933558311
-0.02571431933558311
-0.02571431933558311
-0.02571431933558311
-0.02571431933558311
-0.02571431933558311
-0.02571431933558311
-0.02571431933558311
-0.02571431933558311
0.01100929793523976
0.01100929793523976
0.01100929793523976
0.01100929793523976
0.01100929793523976
0.01100929793523976
0.01100929793523976
0.01100929793523976
0.01100929793523976
0.01100929793523976
0.01100929793523976
0.01100929793523976
0.01100929793523976
0.01100929793523976
-0.02571431933558311
-0.02571431933558311
-0.02571431933558311
-0.02571431933558311
-0.02571431933558311
-0.02571431933558311
-0.02571431933558311
-0.02571431933558311
-0.02571431933558311
-0.02571431933558311
-0.02571431933558311
-0.02571431933558311
-0.02571431933558311
-0.02571431933558311
-0.02571431933558311
-0.02571431933558311
-0.02571431933558311
-0.02571431933558311
-0.02571431933558311
-0.02571431933558311
-0.02571431933558311
-0.02571431933558311
-0.02571431933558311
-0.02571431933558311
-0.02571431933558311
-0.02571431933558311
0.01100929793523976
0.01100929793523976
0.01100929793523976
0.01100929793523976
0.01100929793523976
0.01100929793523976
0.01100929793523976
0.01100929793523976
0.01100929793523976
0.01100929793523976
0.01100929793523976
0.01100929793523976
0.01100929793523976
0.01100929793523976
-0.02571431933558311
-0.02571431933558311
-0.02571431933558311
-0.02571431933558311
-0.02571431933558311
-0.02571431933558311
-0.02571431933558311
-0.02571431933558311
-0.02571431933558311
-0.02571431933558311
-0.02571431933558311
-0.02571431933558311
-0.02571431933558311
-0.02571431933558311
-0.02571431933558311
-0.02571431933558311
-0.02571431933558311
-0.02571431933558311
-0.02571431933558311
-0.02571431933558311
-0.02571431933558311
-0.02571431933558311
-0.02571431933558311
-0.02571431933558311
-0.02571431933558311
-0.02571431933558311
0.01100929793523976
0.01100929793523976
0.01100929793523976
0.01100929793523976
0.01100929793523976
0.01100929793523976
0.01100929793523976
0.01100929793523976
0.01100929793523976
0.01100929793523976
0.01100929793523976
0.01100929793523976
0.01100929793523976
0.01100929793523976
-0.02571431933558311
-0.02571431933558311
-0.02571431933558311
-0.02571431933558311
-0.02571431933558311
-0.02571431933558311
-0.02571431933558311
-0.02571431933558311
-0.02571431933558311
-0.02571431933558311
-0.02571431933558311
-0.02571431933558311
-0.02571431933558311
-0.02571431933558311
-0.02571431933558311
-0.02571431933558311
-0.02571431933558311
-0.02571431933558311
-0.02571431933558311
-0.02571431933558311
-0.02571431933558311
-0.02571431933558311
-0.02571431933558311
-0.02571431933558311
-0.02571431933558311
-0.02571431933558311
0.01100929793523976
0.01100929793523976
0.01100929793523976
0.01100929793523976
0.01100929793523976
0.01100929793523976
0.01100929793523976
0.01100929793523976
0.01100929793523976
0.01100929793523976
0.01100929793523976
0.01100929793523976
0.01100929793523976
0.01100929793523976
-0.02571431933558311
-0.02571431933558311
-0.02571431933558311
-0.02571431933558311
-0.02571431933558311
-0.02571431933558311
-0.02571431933558311
-0.02571431933558311
-0.02571431933558311
-0.02571431933558311
-0.02571431933558311
-0.02571431933558311
-0.02571431933558311
-0.02571431933558311
-0.02571431933558311
-0.02571431933558311
-0.02571431933558311
-0.02571431933558311
-0.02571431933558311
-0.02571431933558311
-0.02571431933558311
-0.02571431933558311
-0.02571431933558311
-0.02571431933558311
-0.02571431933558311
-0.02571431933558311
0.01100929793523976
0.01100929793523976
0.01100929793523976
0.01100929793523976
0.01100929793523976
0.01100929793523976
0.01100929793523976
0.01100929793523976
0.01100929793523976
0.01100929793523976
0.01100929793523976
0.01100929793523976
0.01100929793523976
0.01100929793523976
-0.02571431933558311
-0.02571431933558311
-0.02571431933558311
-0.02571431933558311
-0.02571431933558311
-0.02571431933558311
-0.02571431933558311
-0.02571431933558311
-0.02571431933558311
-0.02571431933558311
-0.02571431933558311
-0.02571431933558311
-0.02571431933558311
-0.02571431933558311
-0.02571431933558311
-0.02571431933558311
-0.02571431933558311
-0.02571431933558311
-0.02571431933558311
-0.02571431933558311
-0.02571431933558311
-0.02571431933558311
-0.02571431933558311
-0.02571431933558311
-0.02571431933558311
-0.02571431933558311
0.01100929793523976
0.01100929793523976
0.01100929793523976
0.01100929793523976
0.01100929793523976
0.01100929793523976
0.01100929793523976
0.01100929793523976
0.01100929793523976
0.01100929793523976
0.01100929793523976
0.01100929793523976
0.01100929793523976
0.01100929793523976
-0.02571431933558311
-0.02571431933558311
-0.02571431933558311
-0.02571431933558311
-0.02571431933558311
-0.02571431933558311
-0.02571431933558311
-0.02571431933558311
-0.02571431933558311
-0.02571431933558311
-0.02571431933558311
-0.02571431933558311
-0.02571431933558311
-0.02571431933558311
-0.02571431933558311
-0.02571431933558311
-0.02571431933558311
-0.02571431933558311
-0.02571431933558311
-0.02571431933558311
-0.02571431933558311
-0.02571431933558311
-0.02571431933558311
-0.02571431933558311
-0.02571431933558311
-0.02571431933558311
0.01100929793523976
0.01100929793523976
0.01100929793523976
0.01100929793523976
0.01100929793523976
0.01100929793523976
0.01100929793523976
0.01100929793523976
0.01100929793523976
0.01100929793523976
0.01100929793523976
0.01100929793523976
0.01100929793523976
0.01100929793523976
-0.02571431933558311
-0.02571431933558311
-0.02571431933558311
-0.02571431933558311
-0.02571431933558311
-0.02571431933558311
-0.02571431933558311
-0.02571431933558311
-0.02571431933558311
-0.02571431933558311
-0.02571431933558311
-0.02571431933558311
-0.02571431933558311
-0.02571431933558311
-0.02571431933558311
-0.02571431933558311
-0.02571431933558311
-0.02571431933558311
-0.02571431933558311
-0.02571431933558311
-0.02571431933558311
-0.02571431933558311
-0.02571431933558311
-0.02571431933558311
-0.02571431933558311
-0.02571431933558311
0.01100929793523976
0.01100929793523976
0.01100929793523976
0.01100929793523976
0.01100929793523976
0.01100929793523976
0.01100929793523976
0.01100929793523976
0.01100929793523976
0.01100929793523976
0.01100929793523976
0.01100929793523976
0.01100929793523976
0.01100929793523976
-0.02571431933558311
-0.02571431933558311
-0.02571431933558311
-0.02571431933558311
-0.02571431933558311
-0.02571431933558311
-0.02571431933558311
-0.02571431933558311
-0.02571431933558311
-0.02571431933558311
-0.02571431933558311
-0.02571431933558311
-0.02571431933558311
-0.02571431933558311
-0.02571431933558311
-0.02571431933558311
-0.02571431933558311
-0.02571431933558311
-0.02571431933558311
-0.02571431933558311
-0.02571431933558311
-0.02571431933558311
-0.02571431933558311
-0.02571431933558311
-0.02571431933558311
-0.02571431933558311
0.01100929793523976
0.01100929793523976
0.01100929793523976
0.01100929793523976
0.01100929793523976
0.01100929793523976
0.01100929793523976
0.01100929793523976
0.01100929793523976
0.01100929793523976
0.01100929793523976
0.01100929793523976
0.01100929793523976
0.01100929793523976
-0.02571431933558311
-0.02571431933558311
-0.02571431933558311
-0.02571431933558311
-0.02571431933558311
-0.02571431933558311
-0.02571431933558311
-0.02571431933558311
-0.02571431933558311
-0.02571431933558311
-0.02571431933558311
-0.02571431933558311
-0.02571431933558311
-0.02571431933558311
-0.02571431933558311
-0.02571431933558311
-0.02571431933558311
-0.02571431933558311
-0.02571431933558311
-0.02571431933558311
-0.02571431933558311
-0.02571431933558311
-0.02571431933558311
-0.02571431933558311
-0.02571431933558311
-0.02571431933558311
0.01100929793523976
0.01100929793523976
0.01100929793523976
0.01100929793523976
0.01100929793523976
0.01100929793523976
0.01100929793523976
0.01100929793523976
0.01100929793523976
0.01100929793523976
0.01100929793523976
0.01100929793523976
0.01100929793523976
0.01100929793523976
-0.02571431933558311
-0.02571431933558311
-0.02571431933558311
-0.02571431933558311
-0.02571431933558311
-0.02571431933558311
-0.02571431933558311
-0.02571431933558311
-0.02571431933558311
-0.02571431933558311
-0.02571431933558311
-0.02571431933558311
-0.02571431933558311
-0.02571431933558311
-0.02571431933558311
-0.02571431933558311
-0.02571431933558311
-0.02571431933558311
-0.02571431933558311
-0.02571431933558311
-0.02571431933558311
-0.02571431933558311
-0.02571431933558311
-0.02571431933558311
-0.02571431933558311
-0.02571431933558311
0.01100929793523976
0.01100929793523976
0.01100929793523976
0.01100929793523976
0.01100929793523976
0.01100929793523976
0.01100929793523976
0.01100929793523976
0.01100929793523976
0.01100929793523976
0.01100929793523976
0.01100929793523976
0.01100929793523976
0.01100929793523976
-0.02571431933558311
-0.02571431933558311
-0.02571431933558311
-0.02571431933558311
-0.02571431933558311
-0.02571431933558311
-0.02571431933558311
-0.02571431933558311
-0.02571431933558311
-0.02571431933558311
-0.02571431933558311
-0.02571431933558311
-0.02571431933558311
-0.02571431933558311
-0.02571431933558311
-0.02571431933558311
-0.02571431933558311
-0.02571431933558311
-0.02571431933558311
-0.02571431933558311
-0.02571431933558311
-0.02571431933558311
-0.02571431933558311
-0.02571431933558311
-0.02571431933558311
-0.02571431933558311
0.01100929793523976
0.01100929793523976
0.01100929793523976
0.01100929793523976
0.01100929793523976
0.01100929793523976
0.01100929793523976
0.01100929793523976
0.01100929793523976
0.01100929793523976
0.01100929793523976
0.01100929793523976
0.01100929793523976
0.01100929793523976
-0.02571431933558311
-0.02571431933558311
-0.02571431933558311
-0.02571431933558311
-0.02571431933558311
-0.02571431933558311
-0.02571431933558311
-0.02571431933558311
-0.02571431933558311
-0.02571431933558311
-0.02571431933558311
-0.02571431933558311
-0.02571431933558311
-0.02571431933558311
-0.02571431933558311
-0.02571431933558311
-0.02571431933558311
-0.02571431933558311
-0.02571431933558311
-0.02571431933558311
-0.02571431933558311
-0.02571431933558311
-0.02571431933558311
-0.02571431933558311
-0.02571431933558311
-0.02571431933558311
0.01100929793523976
0.01100929793523976
0.01100929793523976
0.01100929793523976
0.01100929793523976
0.01100929793523976
0.01100929793523976
0.01100929793523976
0.01100929793523976
0.01100929793523976
0.01100929793523976
0.01100929793523976
0.01100929793523976
0.01100929793523976
-0.02571431933558311
-0.02571431933558311
-0.02571431933558311
-0.02571431933558311
-0.02571431933558311
-0.02571431933558311
-0.02571431933558311
-0.02571431933558311
-0.02571431933558311
-0.02571431933558311
-0.02571431933558311
-0.02571431933558311
-0.02571431933558311
-0.02571431933558311
-0.02571431933558311
-0.02571431933558311
-0.02571431933558311
-0.02571431933558311
-0.02571431933558311
-0.02571431933558311
-0.02571431933558311
-0.02571431933558311
-0.02571431933558311
-0.02571431933558311
-0.02571431933558311
-0.02571431933558311
0.01100929793523976
0.01100929793523976
0.01100929793523976
0.01100929793523976
0.01100929793523976
0.01100929793523976
0.01100929793523976
0.01100929793523976
0.01100929793523976
0.01100929793523976
0.01100929793523976
0.01100929793523976
0.01100929793523976
0.01100929793523976
-0.02571431933558311
-0.02571431933558311
-0.02571431933558311
-0.02571431933558311
-0.02571431933558311
-0.02571431933558311
-0.02571431933558311
-0.02571431933558311
-0.02571431933558311
-0.02571431933558311
-0.02571431933558311
-0.02571431933558311
-0.02571431933558311
-0.02571431933558311
-0.02571431933558311
-0.02571431933558311
-0.02571431933558311
-0.02571431933558311
-0.02571431933558311
-0.02571431933558311
-0.02571431933558311
-0.02571431933558311
-0.02571431933558311
-0.02571431933558311
-0.02571431933558311
-0.02571431933558311
0.01100929793523976
0.01100929793523976
0.01100929793523976
0.01100929793523976
0.01100929793523976
0.01100929793523976
0.01100929793523976
0.01100929793523976
0.01100929793523976
0.01100929793523976
0.01100929793523976
0.01100929793523976
0.01100929793523976
0.01100929793523976
-0.02571431933558311
-0.02571431933558311
-0.02571431933558311
-0.02571431933558311
-0.02571431933558311
-0.02571431933558311
-0.02571431933558311
-0.02571431933558311
-0.02571431933558311
-0.02571431933558311
-0.02571431933558311
-0.02571431933558311
-0.02571431933558311
-0.02571431933558311
-0.02571431933558311
-0.02571431933558311
-0.02571431933558311
-0.02571431933558311
-0.02571431933558311
-0.02571431933558311
-0.02571431933558311
-0.02571431933558311
-0.02571431933558311
-0.02571431933558311
-0.02571431933558311
-0.02571431933558311
0.01100929793523976
0.01100929793523976
0.01100929793523976
0.01100929793523976
0.01100929793523976
0.01100929793523976
0.01100929793523976
0.01100929793523976
0.01100929793523976
0.01100929793523976
0.01100929793523976
0.01100929793523976
0.01100929793523976
0.01100929793523976
-0.02571431933558311
-0.02571431933558311
-0.02571431933558311
-0.02571431933558311
-0.02571431933558311
-0.02571431933558311
-0.02571431933558311
-0.02571431933558311
-0.02571431933558311
-0.02571431933558311
-0.02571431933558311
-0.02571431933558311
-0.02571431933558311
-0.02571431933558311
-0.02571431933558311
-0.02571431933558311
-0.02571431933558311
-0.02571431933558311
-0.02571431933558311
-0.02571431933558311
-0.02571431933558311
-0.02571431933558311
-0.02571431933558311
-0.02571431933558311
-0.02571431933558311
-0.02571431933558311
0.01100929793523976
0.01100929793523976
0.01100929793523976
0.01100929793523976
0.01100929793523976
0.01100929793523976
0.01100929793523976
0.01100929793523976
0.01100929793523976
0.01100929793523976
0.01100929793523976
0.01100929793523976
0.01100929793523976
0.01100929793523976
-0.02571431933558311
-0.02571431933558311
-0.02571431933558311
-0.02571431933558311
-0.02571431933558311
-0.02571431933558311
-0.02571431933558311
-0.02571431933558311
-0.02571431933558311
-0.02571431933558311
-0.02571431933558311
-0.02571431933558311
-0.02571431933558311
-0.02571431933558311
-0.02571431933558311
-0.02571431933558311
-0.02571431933558311
-0.02571431933558311
-0.02571431933558311
-0.02571431933558311
-0.02571431933558311
-0.02571431933558311
-0.02571431933558311
-0.02571431933558311
-0.02571431933558311
-0.02571431933558311
0.01100929793523976
0.01100929793523976
0.01100929793523976
0.01100929793523976
0.01100929793523976
0.01100929793523976
0.01100929793523976
0.01100929793523976
0.01100929793523976
0.01100929793523976
0.01100929793523976
0.01100929793523976
0.01100929793523976
0.01100929793523976
-0.02571431933558311
-0.02571431933558311
-0.02571431933558311
-0.02571431933558311
-0.02571431933558311
-0.02571431933558311
-0.02571431933558311
-0.02571431933558311
-0.02571431933558311
-0.02571431933558311
-0.02571431933558311
-0.02571431933558311
-0.02571431933558311
-0.02571431933558311
-0.02571431933558311
-0.02571431933558311
-0.02571431933558311
-0.02571431933558311
-0.02571431933558311
-0.02571431933558311
-0.02571431933558311
-0.02571431933558311
-0.02571431933558311
-0.02571431933558311
-0.02571431933558311
-0.02571431933558311
0.01100929793523976
0.01100929793523976
0.01100929793523976
0.01100929793523976
0.01100929793523976
0.01100929793523976
0.01100929793523976
0.01100929793523976
0.01100929793523976
0.01100929793523976
0.01100929793523976
0.01100929793523976
0.01100929793523976
0.01100929793523976
-0.02571431933558311
-0.02571431933558311
-0.02571431933558311
-0.02571431933558311
-0.02571431933558311
-0.02571431933558311
-0.02571431933558311
-0.02571431933558311
-0.02571431933558311
-0.02571431933558311
-0.02571431933558311
-0.02571431933558311
-0.02571431933558311
-0.02571431933558311
-0.02571431933558311
-0.02571431933558311
-0.02571431933558311
-0.02571431933558311
-0.02571431933558311
-0.02571431933558311
-0.02571431933558311
-0.02571431933558311
-0.02571431933558311
-0.02571431933558311
-0.02571431933558311
-0.02571431933558311
0.01100929793523976
0.01100929793523976
0.01100929793523976
0.01100929793523976
0.01100929793523976
0.01100929793523976
0.01100929793523976
0.01100929793523976
0.01100929793523976
0.01100929793523976
0.01100929793523976
0.01100929793523976
0.01100929793523976
0.01100929793523976
0.01100929793523976
-0.02571431933558311
-0.02571431933558311
-0.02571431933558311
-0.02571431933558311
-0.02571431933558311
-0.02571431933558311
-0.02571431933558311
-0.02571431933558311
-0.02571431933558311
-0.02571431933558311
-0.02571431933558311
-0.02571431933558311
-0.02571431933558311
-0.02571431933558311
-0.02571431933558311
-0.02571431933558311
-0.02571431933558311
-0.02571431933558311
-0.02571431933558311
-0.02571431933558311
-0.02571431933558311
-0.02571431933558311
-0.02571431933558311
-0.02571431933558311
0.01100929793523976
0.01100929793523976
0.01100929793523976
0.01100929793523976
0.01100929793523976
0.01100929793523976
0.01100929793523976
0.01100929793523976
0.01100929793523976
0.01100929793523976
0.01100929793523976
0.01100929793523976
0.01100929793523976
0.01100929793523976
0.01100929793523976
0.01100929793523976
-0.02571431933558311
-0.02571431933558311
-0.02571431933558311
-0.02571431933558311
-0.02571431933558311
-0.02571431933558311
-0.02571431933558311
-0.02571431933558311
-0.02571431933558311
-0.02571431933558311
-0.02571431933558311
-0.02571431933558311
-0.02571431933558311
-0.02571431933558311
-0.02571431933558311
-0.02571431933558311
-0.02571431933558311
-0.02571431933558311
-0.02571431933558311
-0.02571431933558311
-0.02571431933558311
-0.02571431933558311
-0.02571431933558311
-0.02571431933558311
0.01100929793523976
0.01100929793523976
0.01100929793523976
0.01100929793523976
0.01100929793523976
0.01100929793523976
0.01100929793523976
0.01100929793523976
0.01100929793523976
0.01100929793523976
0.01100929793523976
0.01100929793523976
0.01100929793523976
0.01100929793523976
0.01100929793523976
0.01100929793523976
-0.02571431933558311
-0.02571431933558311
-0.02571431933558311
-0.02571431933558311
-0.02571431933558311
-0.02571431933558311
-0.02571431933558311
-0.02571431933558311
-0.02571431933558311
-0.02571431933558311
-0.02571431933558311
-0.02571431933558311
-0.02571431933558311
-0.02571431933558311
-0.02571431933558311
-0.02571431933558311
-0.02571431933558311
-0.02571431933558311
-0.02571431933558311
-0.02571431933558311
-0.02571431933558311
-0.02571431933558311
0.01100929793523976
0.01100929793523976
0.01100929793523976
0.01100929793523976
0.01100929793523976
0.01100929793523976
0.01100929793523976
0.01100929793523976
0.01100929793523976
0.01100929793523976
0.01100929793523976
0.01100929793523976
0.01100929793523976
0.01100929793523976
0.01100929793523976
0.01100929793523976
0.01100929793523976
0.01100929793523976
0.01100929793523976
0.01100929793523976
-0.02571431933558311
-0.02571431933558311
-0.02571431933558311
-0.02571431933558311
-0.02571431933558311
-0.02571431933558311
-0.02571431933558311
-0.02571431933558311
-0.02571431933558311
-0.02571431933558311
-0.02571431933558311
-0.02571431933558311
-0.02571431933558311
-0.02571431933558311
-0.02571431933558311
-0.02571431933558311
-0.02571431933558311
0.01100929793523976
0.01100929793523976
0.01100929793523976
0.01100929793523976
0.01100929793523976
0.01100929793523976
0.01100929793523976
0.01100929793523976
0.01100929793523976
0.01100929793523976
0.01100929793523976
0.01100929793523976
0.01100929793523976
0.01100929793523976
0.01100929793523976
0.01100929793523976
0.01100929793523976
0.01100929793523976
0.01100929793523976
0.01100929793523976
0.01100929793523976
0.01100929793523976
0.01100929793523976
0.01100929793523976
0.01100929793523976
0.01100929793523976
-0.02571431933558311
-0.02571431933558311
-0.02571431933558311
-0.02571431933558311
-0.02571431933558311
-0.02571431933558311
-0.02571431933558311
-0.02571431933558311
-0.02571431933558311
-0.02571431933558311
-0.02571431933558311
-0.02571431933558311
-0.02571431933558311
-0.02571431933558311
0.01100929793523976
0.01100929793523976
0.01100929793523976
0.01100929793523976
0.01100929793523976
0.01100929793523976
0.01100929793523976
0.01100929793523976
0.01100929793523976
0.01100929793523976
0.01100929793523976
0.01100929793523976
0.01100929793523976
0.01100929793523976
0.01100929793523976
0.01100929793523976
0.01100929793523976
0.01100929793523976
0.01100929793523976
0.01100929793523976
0.01100929793523976
0.01100929793523976
0.01100929793523976
0.01100929793523976
0.01100929793523976
0.01100929793523976
0.01100929793523976
0.01100929793523976
0.01100929793523976
0.01100929793523976
0.01100929793523976
0.01100929793523976
0.01100929793523976
-0.038966064885221495
-0.038966064885221495
-0.038966064885221495
-0.038966064885221495
